[[{"weights":[0.13085412453694234,0.818682155722994,-0.8755800375896778,-0.09271423426505798,0.5654865458248035,-0.06557056018503671,-0.16021460448885394,-0.9317669583454613,0.8356117772898748,-0.9287087633963811,-0.7590174643640468,-0.11498060598697402,-0.3581335536205086,0.30032318860219,-0.5847405497318774,0.8125772180946802,-0.8766645611661219,-0.09281928261743078,-0.3804280894017964,0.226013718101564,0.5937091106663854,-0.5911704646515701,-0.7236719728897927,0.9480724452898746,0.15062695819996508,-0.7872976539872898,0.0645098698641311,-0.8327635155363273,0.15065195283245592,-0.5313121651609456,-0.8756589532540313,-0.21648303896393228,-0.4244432900964501,-0.6019217533790835,-0.40329828645700605,-0.924212441102914,-0.6289577064335812,0.47410929704704774,0.25652589937673975,-0.6060805012504733,0.583051853853955,0.20916965252276828,-0.3889871691191807,-0.19649907237383515,0.3904922222056239,-0.7589684729009646,0.7181698741446362,-0.8001617828460188,0.29258768406628116,0.2677175210790063,0.27319733734267493,0.23475948086350984,0.22525111202656412,0.7058685747569808,0.4904562271206574,-0.10507430118220462,-0.23576088273397566,-0.5742848532846354,0.9064444059521404,0.746654483426703,-0.7668567912292056,-0.9712345268329202,0.055951622653527364,0.1287035811598172,-0.22202403341337051,-0.20892841198589002,0.6003243611948442,-0.0710304361580966,-0.5313037311227902,0.16575572280155523,-0.31620475816700494,-0.7422873028955935,-0.21728002857176956,-0.5366429816557206,-0.7161432578099423,-0.12623158871282933,0.5067102758411535,-0.06649082779037492,0.5403830812814372,0.7102308188716493,-0.7741945066089778,0.33091296656932423,0.835653094606434,0.5343266611873423,-0.5837555817087345,-0.2649302578472881,-0.25472771242618863,-0.41957742704354795,-0.7791807856384889,0.7517698150404036,-0.2690288219426575,-0.36637828889032864,0.49359197481950456,0.46087253681792795,0.7411061700326014,0.7645706765723527,0.24646691948522453,-0.4338271165989479,0.0043634754858398565,-0.9246824167750335,0.6283785959551853,0.17867603490049921,-0.2612762335967057,0.3962492979417492,-1.1507472187039056,0.11762391130909422,0.4476789029952244,0.3554689578789426,-0.5782935600495067,0.0957057558717711,0.5700834810978503,-0.6228857122397145,-0.6660967508126721,-0.854059509668311,0.1437702606929232,-0.3018039508442179,-0.21594412265594676,-0.7655456276227551,0.5509161621118471,-0.18684435431660407,0.760881002555742,-0.4810346666300801,-0.12086435823303777,0.7759646508284901,-0.6795906448604848,0.07963976450928181,0.4762540631340138,1.0026948283605188,-0.004442358609399925,0.14749449663117234,-0.5804767639623275,0.5228317071120789,0.1341520749041495,-0.8668712671943827,-0.40251438537571577,-0.2676079262253305,0.42872479624167836,1.0099117242469073,-0.23924355595947794,0.7544614069090256,0.7955551974808128,-0.8006170508682202,0.04906056234630155,0.2825862849032322,0.0741504649589092,-0.1704479440717974,-0.14777967919991694,0.9007599400118683,-0.8041283937127135,0.579957404588871,-0.7142685707097951,0.1819511666423392,0.15794477420653102,-0.23055919704322383,-0.09983097887200225,0.5064044525619604,-0.39628041688933946,0.30130371196019384,-0.17859816696178263,0.8140514369843871,0.6686381662319533,-1.023532749863729,0.8192460402112328,0.22969893409843656,0.2836986118536381,-0.06326206007465418,0.25054470851744426,-0.58210522812004,-0.026277142301213807,0.16812436182767065,-0.4202478917521687,-0.1563998044231549,-0.30559953544899565,0.16765070039605665,0.07386272408555575,0.7391285982440619,-0.5135105363990448,-0.906826898490287,-0.5679806205783011,-0.13050657610672228,-0.36269697836010356,-0.020626561234610312,0.2645516547879585,-0.880294489725317,-0.2491634096186039,0.11766163152654088,0.021140312663868965,-0.30691091778882634,0.2777053632661522,-0.7048028581377966,-0.2903830422266643,-0.2126853385077252,0.24450727482409446,0.05066040858161583,0.6601705195193368,-0.8730439909322852,0.14957372328764676,-0.10187655385299989,-0.7183158884606283,0.27593991955559205,0.43643888890195026,0.6341141176540747,-0.7200874633061166,0.5555368415140595,-0.7479629774883597,-0.02368519231529366,-0.3205863614833138,-0.3421584848596251,0.4745215740779849,-0.8877197233713882,1.002382843982652,0.21756154516913043,-0.36571437933265194,-0.7483578214428104,0.1625174568880491,0.029230832449671378,-0.19946544187768075,-0.9509548104885142,0.06604784265480074,-0.15091241194855787,0.720748871648692,0.9304907552140923,0.2780428467489327,0.33243251776358945,-0.7543002623111845,-0.5573338511096771,-0.920702329203366,-0.3326699349734165,-0.6907116725193864,-0.3653124733397796,-0.14096250071484473,-0.32034619363006733,0.3406257299864276,-0.39984603480320985,-0.08842333529244213,-0.17503054364834478,-0.16935660891095047,0.15592136857763164,-0.9042643578494303,1.3526593260371573,-0.1775161264381661,0.8856627382577129,0.28711589434019014,-1.2529431528729058,0.5868887408847044,1.06870262637067,0.16329069986501255,-0.4470486211145118,0.6089926265367593,0.5918380686081746,0.37758949701724615,0.5010179092021706,0.7384798450034342,0.4167209392833202,-0.3645173940403576,-0.9057413096834921,0.44701712006895633,-0.5144968795462409,1.1923472797798993,-0.453661890184954,0.1779846530371599,-0.2304820215617926,0.6009274572786734,0.2271688400394255,0.24109557621088848,0.08278996962358738,0.07224919312495261,1.1128032210438796,-0.5929953368903098,0.3395740869927093,-0.9468577051780978,-0.5542385869858509,-0.764903632961012,0.5238783814297362,0.49198622234000816,0.8036335324316485,-0.34934529197661657,0.08679851920791108,0.07226675620829108,0.9493554987682763,-0.771709511869052,0.28295692354295404,-0.5377151381423928,-0.5719498520544114,-0.35352097977621383,-0.5539348368209388,0.9044883656298278,-0.3038087256221768,0.18809494681791963,0.40907813297264145,0.05301232706676479,1.1338630585637754,0.15940489565652657,0.29703633486058384,1.1241543892340757,1.007077871764345,0.16456054168583018,-0.45146654550370147,-0.0513988093650598,-0.47657106716273023,0.9263732312573175,-0.6196288345574487,0.4091572178050971,-0.07941368512829919,0.8292061734786372,0.4643038604450509,-0.7789573151813929,-0.377162823583134,0.7660650533339202,-0.7783052096590968,-0.45040354920091474,-0.7763906062774258,-0.3428948987902588,0.57657251817439,-0.7732460454385646,-0.47523843050588804,0.013470679522766052,-0.655930215520185,-0.444020531501093,-0.2183195965981796,-0.32680891025801095,0.3217976256574158,0.09635553960320699,-0.1821640870447876,-0.7955933578010302,0.03318458810703335,0.05619689170183814,0.015585260222825673,-0.6927299875964044,-0.7792099771745526,0.5993012219388667,-0.40790994010263903,-0.551551924696188,0.32731388838161146,0.42141410006269425,0.020890141217188945,0.2271130604153182,-0.5181159363551093,-0.05291173378119797,-0.2518181522467619,-0.8042370324657472,-0.9387682288992972,-1.046418063898832,-0.9335738521824509,-0.9463852672553625,-0.2695100635818902,0.5194162760276488,-0.30600659292568716,0.5930470077166664,-0.24646920560073943,0.30911970899218716,0.6031199964978884,-0.18720820048346956,-0.030587919991699457,-1.4478096881883036,0.27004872053094703,-0.590255953117506,-0.50615994643295,-0.27807087594130375,-0.8647476780351092,-0.08863218683968635,0.007290874481057383,0.8253567144005135,0.07256966214011339,0.6319534555562236,-0.9168870894770765,-0.46922760610547154,-0.4316779352215321,0.4292113777566817,0.12895203148430556,0.20930841865938504,-0.2667028809106336,-0.37431831656362397,-0.05631976474617457,-0.9498453802137141,-0.41658617617700183,0.4012522136621342,0.6478872503082248,0.7930397006957333,-0.24251916693001294,0.7465641530323579,-0.22574179378846176,-0.0777420010976531,-0.4974041067550104,-0.5553796647434869,-0.4456118205661936,-0.5776237998219155,-0.3174281380988974,-0.38892870093459936,0.5205511699910027,0.38741796170755344,0.4778911615752448,-0.8821713935052848,-0.6332917304197391,0.07728435432698906,-0.5387266439921503,0.6326087417182797,-1.3963630726886245,-1.1603829834066373,0.18649552431869146,0.3562410833975544,-0.37192087789993294,-1.080591429622174,0.8697330923009203,0.3013549809604214,0.21661280871927424,0.5433648132534394,-0.5497761597730262,0.3105665351837491,0.1120983991920174,0.4702622594357048,-0.29259000708078575,-0.6834098800232375,-1.1544698108848317,0.11578271253859763,-0.0881310376410182,0.33387561905806423,0.8369269054880004,0.3045808015587138,-0.8745187806431374,0.031633118698042306,0.7871941228665703,-0.377362428857322,-0.5329161492144572,0.3790686480580873,-0.5119031978639337,-1.1671828473458272,-1.1214787563080404,-0.3611042831968667,-0.23136004072332847,-0.12602473453631924,-0.5190404825917392,0.8755032193947159,0.22427177941463886,0.8935908197504114,1.1491670272779029,0.6242626893400276,-1.156799729917152,-1.379562481981768,0.17878323203842134,-1.2418989760681352,-0.6064302002349944,-0.09900619709189314,0.11778675682862084,-0.7385801290492334,-0.16911131552497177,-0.1811799482567574,0.6277668267097797,0.9873794479229199,-0.36962243015728147,0.40493077245336473,-0.8995027940995483,-0.5821463645178053,-0.094503807964625,-0.27180046359960164,-0.6594819090753007,0.9364879835445339,0.6272678594291881,-0.4848809921367201,-0.9050823268338248,0.7009026640527032,-0.5498285844725117,1.0186127952778623,0.6924677163859404,0.8055422530496422,-0.9949469426177868,-1.0337907189852547,-1.2869920280960216,-0.10225090316372078,-0.5887807601473583,-1.0002435246359986,-0.42435131006190463,-0.5637905032957847,-0.19603285635484982,-0.24160811833779536,0.45065415621722005,-0.9275601115075389,-0.5014569633823851,-0.782899341547937,0.8015588765695052,0.04273792880049905,0.592512436747472,1.0151685437735114,-0.3204502467105664,0.31956186422509886,0.07983647416043628,0.3188047461090595,0.059684046199792624,0.6762129577091147,1.1855352380604003,-0.39688743377406266,-0.6388595841140036,-0.07025516907832031,0.1701834126512308,-0.5579556681828431,-1.2401920538741362,0.8491414238524386,0.39296123611415534,0.21998730840704692,-0.30411315538429584,-0.13329036523008328,-0.023425043462934485,-0.16573013817887508,-0.33393514378386047,0.17927808533492673,0.3738838635271948,-0.33091227102477255,-0.02356693483413909,0.2672062045420755,0.8192634145731654,0.9073808406368419,0.3089667612757122,0.31229053133937745,0.5675167225798646,0.41903741508282866,0.7495601761164886,0.8265884879771693,0.7489556995278357,-0.27378787239384095,0.11666140131475344,-1.0062599326164614,-0.34238890426972757,-0.3362086491744721,-0.052985296537268585,0.02907346857262736,0.22485981789310724,0.7910479697848274,0.6943537278717653,0.08730483322382787,-0.6701436102277644,-0.4292916377918932,-0.11888899149587477,0.606684535698546,0.0953093036145014,-0.30173817237392037,0.7663250492667871,0.048550787069158864,-0.006396064865214424,-0.1846205688230921,0.9485810849722975,0.5731889126715263,1.0773440576600752,-0.14401280817951082,0.07960244396521898,-0.2655705389938501,0.02602764472391829,0.7044481938414782,-0.4303496395769716,-0.09537680148800264,0.3472242064006201,-0.38049334815752994,0.7209707053121147,-1.0224772102464106,-0.5997439110716504,-0.4067953513960102,0.6077216208002283,-0.05275188298739659,-0.10633889752640495,0.3842207368675119,0.9407349742895268,-0.6245824931422268,0.7479453654024972,-0.3155401004504318,0.2500810915249695,-0.531262496867692,-0.35278488538123826,0.8883748181194481,0.2812214642036076,0.830301575004844,0.4459062688382532,-0.174915597073501,0.5279638086080273,-0.1136017008801799,-0.30405700405579034,-0.3358982661563063,0.15542527668838976,-0.26054145703029896,-0.5131465957825931,-0.5735913936028351,0.03216401399613203,0.3699251469305369,-0.4013492639376292,-0.4255623945587398,-0.7575338922965681,0.748786342289293,-0.5344018440114429,0.9610903389735875,0.10039438977117718,-0.6761494765274083,0.8898348311281512,0.9782824397624812,-0.9701619413127163,0.9912926232118583,0.10929092896715722,-0.3958983931211541,-0.1711890525468354,0.17446489653755953,0.7858083421495815,0.4306843305425639,-0.8824361359328919,0.6623510313855957,-0.3163830401917083,-1.203294257583074,0.22144072971686243,0.42987189500440565,0.41477835483629155,0.23061267428196028,0.4220095617629031,-0.4847652845289846,1.1751176108884642,0.4612545542139797,1.109442653487606,-0.45516145396557206,0.5323051168652625,0.257163528991689,-0.7803520552882754,-0.0421397654494311,-0.25033259561600074,0.5698964448070878,-0.20897730331661113,-0.4280416847663372,-0.02204282670000896,0.6280754921973651,-0.4760413265820389,-1.0483026853003552,0.12887824263253128,-1.223574515698148,-0.07675834579274038,0.5096348343912701,-0.6523572371362445,0.7444977218577875,0.10021881641568997,-0.1231958062216497,-0.04172497307085148,1.176729599338639,0.16118281387429081,-0.5743335614946246,-0.27785144740488954,0.5130385549940993,-0.08402028979259081,-0.8447775991204377,0.4271327537026363,-0.304614032295297,0.8434253399217799,0.9516768047193764,-0.26493843325113575,-0.17967127183181814,-0.629622205575675,-0.07581060627594202,-0.6258144946537684,-0.661092408531309,0.8695900367992918,0.3344824809128895,-1.112637753920508,0.21779272657772664,-0.8148329750892684,-0.18351461499801233,-0.1337660860642942,0.42964463627387417,0.21309443408539397,0.33392791031583147,0.12387586760827698,0.024130386486120238,-0.5929398002301577,0.6370164992669948,0.31053583123038025,-0.09472236885859475,-0.5254550309524639,-0.6748135951903428,0.8205564145691018,0.004256991443782704,-0.638506075020044,0.1615597895754486,0.2379321547016695,0.6600821693956305,-0.3565770433319278,-0.6982009867436584,0.21120175361318574,0.46478818790715937,-0.06694027969139789,-0.1885778273694115,-1.1121476577466733,0.08593932438705681,-0.5270526114667303,-0.7102801941369858,0.06230283780302563,0.41069673867462936,0.8437474159325415,0.8592854019693428,-0.7492385727727704,0.20589655474989874,-0.13175081319956392,-0.619296155875954,0.8273347222540244,-0.28272249731167376,-0.09361277395635685,-0.21557145748685666,0.8086404595875017,0.12754466123475794,0.11495420351864638,-0.15302576714911886,0.6625425681630581,0.32270198763615676,-0.2789884700730637,-0.3554409860865175,0.3932529348063361,0.8110905384471162,0.18383218122555425,0.8412893034301369,-0.4615801419859862,-0.508231558546654,-0.10542768867422733,-0.22040369805936538,0.32321890555599087,-0.00024330017436132294,-0.4402293440389706,1.061010612665339,-0.5300336976988231,-0.506606258181158,-0.39274157151523575,-0.5414556008394509,-0.44273993583022614,-0.7290058597745777,0.18578670577814396,-0.4521265736357774,0.7686365288694463,-0.5201526605419167,0.017005048592530603,-0.08907015448573752,-0.8882191480810784,-0.6843446331300629,-0.548707757390828,-0.29436565278901794,0.2615684207583534,0.12206214316766643,-0.2685579566381769,-0.005578925019008951,0.8535903235591916,-0.8769729053394726,-0.4619770823333585,0.23845677284782843,-0.08355319883111598,0.5274128232646891,0.2115182369679351,-0.6990283853501671,-0.5315840345434428,0.9515269253272869,0.5834958025348186,-0.717750277759134,0.21594561146762178,-0.932641012447164,0.8636950266187551,0.7679812873746199,0.20872921059091487,-0.9744208023651382,0.12733654047720222,-0.9650295859797677,0.7924519875347653,0.4418581321668591,-0.3757771203059823,0.6758096804432752,-0.08326150832576491,-0.20125361650821044,0.9272669638799523,-0.3800198066329159,0.10021572038760508,0.2623617144886312,-0.24680926005412626,0.1124293729250672,-0.6515759765008377,0.6610683904595352,-0.13667800500392144,0.7225718512761594,-0.6773120100920058,0.4532005891137144,-0.3404234436146541,0.7939618120093985,-0.4265424245066589,0.5598530189859589,-0.9875153305262776,-0.7383134142768384,0.919677649901316,-0.7665829021118209,0.2697525722654821],"bias":-0.3423872246533212},{"weights":[0.8213979510694762,-0.9975309892203836,0.2553106445281683,-0.8693019659994725,-0.7047524084153203,-0.18556125282225588,-0.46305440935563125,-0.6455895452426637,-0.4645823776921896,0.3128573660781737,0.61626160391025,-0.8081858368894022,0.40352071429828307,0.7546253789617787,-0.06885475942090968,0.03807042066662358,-0.8223927157095958,0.9895730923761681,0.6806304600311393,0.5895929553681074,-0.7857331753682804,0.1226639115326198,-0.41823553154638615,-0.7207443588680751,0.4437000482127207,-0.07324728383150658,0.8924257261708783,-0.11620163135398665,0.9102059721580011,-0.4741989975459924,-0.5057560362333446,-0.9031008602577435,0.8815700489780065,0.34102754677420233,-0.9370495751860748,0.883202981639507,0.17644876303472837,0.9279248027032745,0.8592525927234247,0.3539702761122427,-0.9655196308366923,0.3122909131165149,0.8564609244415874,0.7370106434940272,-0.30063938316959044,-0.6928697497502964,0.49041836417831736,-0.6286437315784393,-0.2929365750415823,0.29123135667470135,0.42922581291898426,0.5463659080543946,-0.6236335966087667,-0.583548290978277,0.4586161913641682,-0.6954294765322224,0.8303498034184966,-0.773606452558222,-0.15095478426883036,0.6624416178142174,0.017054358803367406,0.7159519313602919,-0.649994440287735,-0.9254238941919648,-0.11690333304067739,0.36592992114634054,0.8112128585868479,0.9794586908213163,0.8094171121417362,0.24218154623336757,-0.525482874076335,0.370950033500456,-0.7729824052507642,-0.11418402743408192,0.023574567818006775,-0.6981777657459587,0.29933147241649927,-0.23347632235800167,-0.246426314354196,-0.8206243523697074,-0.8247197218335561,-0.9619691623300781,-0.5313385634350105,-0.4113077172078703,-0.01812077700959147,0.7913649764861588,0.9346920690510809,0.19819272409361455,-0.014036224982642039,-0.5623400582244785,0.6986838247561469,-0.4053082534489976,0.3593928025578603,0.6130961258666232,-0.41003759048761285,0.9039389672723585,0.7211279691788349,0.49548770370993894,0.41490158211438494,0.8106086315645566,-0.6795522895747673,-0.12582508917678187,-0.25461725973452404,0.26675687972729195,0.825406852706573,0.6148827757255796,-0.897978845424565,-0.9614679990906171,0.8528235548796517,-0.9622423294672968,-0.8275833100568826,0.6173309653758294,0.4250926966511863,-0.2326215483461347,-0.5917333259859485,0.8012564831792933,-0.6861831316050034,0.8680356688748881,0.1671756265012079,0.4326898486098349,0.3572185883446213,-0.36010992368121947,0.1274364992430327,1.1443246408417338,0.16142807467789075,0.0983991636610356,-0.40464759409541695,-0.08087865468393707,0.3611585599010252,0.8317358740509293,0.32352947256271986,-0.6222888671958178,-0.2985337935185171,0.0991952535943213,-0.9961759604899725,0.625046865294268,-0.04143485192338966,-0.20202313677628247,-0.760393852075749,-0.08180767002135836,-0.09465911906103885,0.09597526138923174,0.1750428960004595,-0.3389551170096007,-0.08363545212062137,-0.6260846333124785,1.0791108028633458,-0.5332754712420033,-0.0920147959405215,0.171221540622072,0.18324664319089293,0.7834273374700085,1.4819454852058547,0.3817251809687306,0.8854297532005452,0.7388612232553724,0.24821885054965293,-0.7816951454515872,-0.3957134639204358,-0.3793066377283041,-0.8962575772681762,-0.22728810953790515,0.10346289688574449,-0.7243694230082626,-0.09066619511570148,0.8803477927785038,-0.8867076244452983,0.9006812397711996,-0.30857668131446214,0.32136569305789076,0.878710288329273,-0.12668924062579298,0.027257640325608522,0.9773664516786992,-0.1269923005491969,0.16035456292798153,0.9538820755296066,0.10745792210275848,0.059037726912039214,0.2945799311519383,1.047802746546425,0.5394465651249557,-0.15800788799791798,0.7634707136278356,-0.5154952445054368,-0.10603092356337644,1.2525304457886226,0.12631087551466286,-0.37383453158991353,0.3537410318785589,-1.0587624290778246,-1.18551539753435,0.16258291738137676,-1.0042797470999172,0.9031277826051578,0.5781815591841342,-0.7647687830077959,-0.5927304906360141,-0.8135949228128835,0.7987631168927022,0.18729977242557397,0.22055109828023198,0.8491004654627923,0.23962220611241164,-0.9949797436335104,0.25112773535343264,0.4988351032699808,-0.24831487968266858,0.8564784109892625,-0.7510602080275872,0.368706856727519,-0.32764811145488204,-0.3619799090722202,0.13959194064610345,-0.1681008530502603,-0.49689625515059077,-0.09634360877711987,-0.868460676428296,0.507348773349216,-0.5519546452022374,-0.6610497902514864,-0.38301575825597856,0.8948928871932392,-0.977129255755345,-0.2474838420586829,-0.7990117419039211,-0.8047706017962859,0.32018123199998316,-0.2013596194198839,0.8347329917869771,-0.6018898416444236,0.5406309120249502,-0.22978090416117508,0.15632911591845894,1.14691617178722,0.05456869735387606,-0.29770261526049646,0.9253723057030458,1.458168466018979,-0.29806111551508263,0.09602850359094273,-0.3715501493450183,0.434055082272335,0.6028308484756607,-1.1328028819695124,1.1604110153171403,0.7693035593273158,-0.9753116681121017,0.5096594355160702,0.22527553362380265,-0.41421564251633725,-0.11768096033237875,-0.753326658425325,0.405163537122567,0.9520693711983131,-0.7000134316060792,-0.5425628438264408,-0.5569010825772298,0.017159466695085807,0.32405275161686375,-0.5059462181926352,-0.928867025180679,-0.9791199365322323,-0.7073951006677169,-0.0238088444803939,0.9493063706972437,0.03756056050071817,-0.2651684095119464,1.0958724902213852,-0.3027655374315934,-0.3500279670326037,0.7696519682591471,0.10062512136564042,0.9528860849680205,-0.06284222181253102,0.4496258282976992,0.4112991581606629,0.7060690372351883,-0.5098055652459588,-0.09898135602712327,0.4294863947155907,0.2605034889593567,0.5765929571353324,0.8339812860791562,1.0058498005967689,-1.0136004086613741,-0.35245207137066065,-0.2553893170545588,-1.4656481962907173,-1.3620631048807412,-0.8418722439889875,-0.6906554355866052,-0.3341815980530453,0.47249881241308045,0.694461480478606,0.7673526193851185,0.9074320123044212,0.5835479553947788,0.5289798715007644,1.2310713751071987,1.0086918889426857,1.298998562459632,0.8624516744831632,1.073901014940201,0.22913965290615745,0.7538849204750091,0.09334873699028333,0.39487316832628716,0.1740990763486323,0.3567249772265202,-0.836805586586875,0.8263448028524603,-1.1547806797893716,-0.3528626407778065,-0.6115278115504512,-0.6985018987940368,-1.0771499323350666,-0.14294978237415926,-1.087314489356437,-1.2629483033865307,-1.0906529830823504,-0.6309099850343458,-0.058903423732571424,0.7679813983567528,-0.8922101618010355,0.10828631708482722,0.2860879391791011,0.8894807097897749,0.6550626557256297,1.316489392824969,-0.2448404476692861,1.0262399815122718,-0.32693887513999287,0.39553560285073847,0.018951873465660123,0.39723660772593034,-0.6485131562887672,-0.4439190106909024,0.8256544945864853,0.3018624523348715,-0.674666824046303,-0.15029202030258615,-0.15587496754209323,-0.3675466357161313,-0.2981715697482296,0.3408552591630198,-0.9207329241839758,-1.186109139009785,-1.5306324451569158,0.5507241487432094,1.0081513182085118,0.04149207340315822,-0.7462109715063028,-0.10758054179904186,-0.3306653925769302,-0.22100382083992773,-0.9298056969999948,-0.49891613591098655,-0.9564500391189078,0.6917490031980696,0.20210105691369656,-0.13972318693864014,-0.4877156597002741,0.8685513357620661,0.5749840625993241,0.14558248035851,-0.5862253691385398,0.08162932189498887,-1.2110034007498074,-0.6097044982790635,-1.317352813715965,0.23809047503017947,-0.7085010440953521,-0.5275145145091125,0.011395201489952713,-0.10408070081470558,-1.1584957557681708,-0.2949743925228602,0.8675071173789921,1.2789683379394645,0.547807338965441,-0.9871732997442558,-0.7495833336700819,-1.2483223302661721,-0.7940899070714453,0.13369295996828706,0.5875696818366326,1.000131168142643,-0.6378996672040802,0.6011548383681707,-0.09859612462619048,0.1454555592304989,0.9669285196970638,-0.3578816512907832,0.029494034692229807,-0.5381151001576776,0.7212679127363105,0.01951632375637606,-0.1393840289706321,0.7094584371187915,-0.2507949503370992,0.26280686359641375,-0.2036157629290719,-0.5742617781300859,-0.7578379596259308,0.12819652204086449,-0.45350282111375334,0.09971265950446877,-0.4365887695735678,-0.9384566949527274,0.24716117944926957,-0.00033501305717345206,0.371948765518539,0.3632788167557549,-0.2982090049720401,-0.8396313976121195,0.6741698341960598,-0.35419489963628104,-0.33777100767610213,-0.8876755118709063,0.7043516335691393,-0.5190523257728836,-0.31506695873916374,0.7638765159322197,0.3728354917998325,0.13877014411711505,0.45131348169500646,-0.11925977757342476,-0.5494431682607918,-0.5858067999084959,-0.1422724312266849,0.8825402570648567,0.2406433217976465,1.1049517663294175,0.5653147399302475,0.574158478229489,0.08239600174771597,-0.2992784488432854,0.17236491646023883,-1.2240164771491386,-0.736328630532368,-0.20388849940786793,0.3863247255823595,0.702966996884446,0.23468102563309123,-0.5928764611121812,-0.15706395043008758,0.0022372635200217043,0.642332870638576,-0.9445482131789311,-0.9593232704921112,-0.08583256035964289,-0.18649690579321737,-0.29257456687896605,0.5135048784880826,0.13977707069089043,0.23949894627180723,0.9586595579850867,0.4204265191405676,-0.012255761058731725,-0.4919910150252576,-0.658872431493256,0.7563937327143307,0.1510016956253592,-0.8378215232898548,0.623441566670215,0.15186111977737846,0.35483506667521403,-0.06358682626787193,-0.9068298091372707,-0.3104972826377631,0.32685282825354933,-0.14681058521474094,0.17719147377364014,-0.21953112708056974,-0.6077712659564413,-0.19676099571751715,-0.5151303011364008,0.3956676856014598,0.4097331862265581,0.05589582893543001,-0.005907664243861718,0.23938926517275033,-0.9504133309201326,-0.17820755643508887,-0.7680897550510458,0.3336584649192445,-0.05706527801184389,-0.22821289027138167,-0.9335988282998944,0.2133611580922105,-0.21883046598699363,-0.9159575776084781,0.36812967792048606,-0.9499635425618561,0.1408801743367499,0.36063827431135387,0.13373740287372696,-0.21458548243802394,0.8271208416603166,0.6266999767722046,-0.32089379303360727,-0.21170318833808258,-0.9184430769771547,0.15345167066578957,0.235002084184031,0.5731656487699798,-0.49038893063930694,0.3108238489829834,0.9162982571597368,0.07370739823583869,0.570621209291099,-0.010217425020243467,-0.31940398381812896,-0.16277926689225963,0.07858402241122833,0.18622466527992595,-1.051269135744348,0.37211733090179683,0.19769036282384198,0.7807445727609785,0.6105218554026631,-0.3960858840921917,-1.166976673572042,0.09964229182836977,0.3428100953872285,1.0032937114230382,0.2377634439192531,0.028399725729107282,0.12610199103499645,0.9542347127087876,0.7393544622568586,0.5914428468824551,0.3709011670704405,0.8921777725387078,0.8557347742859215,0.7125843895769977,0.33894277576221565,1.0433597625737845,0.8972236187489704,0.8173951292981202,1.366922753078708,-0.4895951898866122,-0.27577930224915376,-0.2500728389258989,0.07926691195597915,0.46070706301158415,-0.3666138657272736,-0.7509796006345111,-0.22249092439253418,0.46279409398512245,-0.4829778643057944,0.05990075098888391,0.8113237976829186,1.227961366489048,-0.2383978350559929,-0.17804594095581178,-0.14826373561204176,-0.814560166814664,0.7634835488226355,-0.8852121245290183,0.061097348661244055,-0.3581354966125033,-0.5294505199070365,-0.5713039635189286,0.09203059629414499,-0.6642927051928734,0.2943928697336219,0.7209428038419189,1.2390400846703973,-1.004859223065745,-0.3366030860795269,-0.08792057021601885,0.6674706877232027,-0.47095643637722306,-0.2636665679384369,0.08362730581689697,0.3458031010219242,0.710001717198545,0.32083308947921513,-0.3617935678138341,0.17580322068688983,0.26244276487292717,0.8451970348581761,-0.20071232680393253,0.1390302791515655,-0.8594071540502279,-0.5239764247548018,0.3449801188487731,-0.537902162061417,0.17979816324267375,0.5526628341496378,0.274676634171152,0.4668699879903735,0.4085828077104821,-0.23697235790442286,0.3640567401789943,-0.3180866558411578,0.5417915619953896,-0.31943605264526637,-0.08241516096181087,-0.5938611844449376,0.2488329247158659,0.10946219912655157,-0.14158875061942736,-0.08699650887836731,0.08186547216903214,0.22350211168951295,-0.3122126437118725,-0.18332672095365585,-0.4426648145577682,-0.6472377010481152,0.16911130549348163,0.7835844566148632,-0.9167013383931415,-0.7227647254588008,-0.08378711389215932,0.2531771193550201,0.6871093080438951,0.27636081443896326,0.8061660393346568,-0.5070818999944582,0.8783061045945576,-0.2272595333329924,-0.12829563663197122,0.7142047812900092,0.7578933529393224,-0.8237148746296602,0.2414265656182843,0.2765181594368702,0.38260873626115866,0.2225912085373954,-0.9457703440300113,0.5896451929635433,0.46690801870753895,-1.1378140130491627,0.3530560652434342,0.9522334983130885,0.6571935131564802,-0.8903575364577228,-0.1356376004206547,0.9873241852233536,0.7240427272188688,-0.2162278154054138,0.700324706587856,-0.7052650231725868,0.4227109796299158,-0.09749333014707838,1.001601639673443,-0.5860964350384676,0.7046584664284358,0.343495836227132,-0.841266741620054,0.5016091578889592,0.6537366308858181,-0.3079590503977502,0.4253640100183076,0.021969377195081234,-1.1074468278181624,0.3756280069379661,-0.5150046583542318,-0.04851316846498668,-0.5428057315982219,0.17649619418914606,0.45867946714099544,-0.6544816897207043,0.22997640290284088,0.806998827490444,0.6260820905168126,0.3312347364972068,-0.03280889473608161,-0.5160716609749962,-0.6242877073590618,-0.8503582743197491,0.7154684127749338,-0.5478879869624589,-0.5126090251480168,0.6726872327479448,-0.5714754113629319,0.27984067080642183,0.00015097168571922317,-0.424338775709243,0.6694863178564221,1.0697133115998692,-0.3512894181869207,0.2986574191293875,0.16149791490307455,-0.8173170059788053,0.7570435221247981,-0.600591028083653,-0.2057622474243852,-1.0761651898855522,-0.41768233919311587,-0.07737310468158565,-0.4974970119370242,-0.3011106723915758,0.047341358295612306,-0.030435182326059896,0.9290082479954012,0.386233163747439,-0.01046794304926113,-0.8542688502711635,0.2177274392637485,-0.8414941689686459,-0.8486748147904024,0.7789650132646211,0.6186985418549593,-0.1552169237939234,0.42488325830805634,-0.3291808813161644,-0.4978328848935911,-0.5476022258433134,0.8870401924704249,-0.17045115646871398,-0.17497674116135473,-1.0747905571302834,-0.0926437040241058,-1.0366111665705726,-0.2563574995835777,0.15195144237647232,-0.060396853646164456,0.6602671812717167,-0.40042817756175747,-0.45040760968668414,-0.5073524566120029,-0.2791403714972094,-0.018582676173037882,0.3878661271221029,-0.05591172724452376,0.9564177284672186,-0.3797387584946308,0.8207513461221616,0.78325036374399,0.9372971920692704,-0.2175099913735415,-0.09588526702129586,-1.089931895749902,0.4711762870755955,0.805737022560369,0.3208484819511922,-0.9409219526531815,0.7454415831160547,0.5794100025166445,-0.38585226494362784,0.7305805521536041,0.5748261404299797,-0.10270779308033572,0.3734120438947826,-0.7186850787939758,-0.6356813204779723,0.09974296609462291,-0.902898825000766,0.2246609046147774,0.2873323350301833,-0.004865059704097785,-0.3324140270624425,-0.9854814616823897,0.06118515816144399,0.2300023658471173,-0.88109355956135,0.7304963035695411,0.33954725106420103,0.28273299082548764,-0.0870554967046138,-0.1941128865374501,-0.052121487847526286,-0.011007753886843571,-0.4379833532432243,-0.12793668183269435,-0.6923780884775844,0.07252214318511432,0.48713104395957074,-0.10659646587613168,0.5445578002136374,0.938638662339482,-0.9322407323510827,0.5482629757445066,-0.325894403908161,0.7298801607856104,0.5412314537117555,0.48534508477278493,0.39317673921080765,-0.6146032207522469,-0.5852917052208046],"bias":-0.5090813477507399},{"weights":[0.5542348103796284,0.9512579786429134,-0.18125010911249673,0.604364600983192,0.14220532130701313,0.6543061853564351,-0.5656909885912951,0.11854896941254633,0.04108505401083473,-0.7164025750859793,0.8633535946222621,-0.6366175170935708,0.6955197555567221,0.87123591785718,-0.4501469883181679,0.4714111971187962,0.27218301225523467,0.004997762558646368,-0.05547919476361862,-0.9934022374338647,0.9990577881056177,-0.7544578371193529,0.903837366372664,-0.08494660475771054,0.010138510903153097,0.5793619830883867,-0.5951862312742016,0.9599880113801365,-0.99938467925059,-0.038789622538733415,0.7586344823951081,-0.5960612981042122,0.23237081042634067,-0.01438762401184368,0.8441145360417708,0.25216038894806,-0.4746426400930008,0.5325338756353959,0.2802184773744501,-0.12240382906582356,-0.7326017116063804,0.6610447735487704,-0.7075415089097845,-0.06154697862859293,0.34567550386422746,0.7144086217148934,-0.26367586517322344,-0.5266959624094446,0.6157330603481594,0.25884839013779976,-0.2574034292244753,0.3661730438673483,0.226491763593895,0.024517938198330036,0.014678334311604146,-0.8350937559788902,-0.9327479434485761,-0.054112302507690835,-0.3778113975580335,0.9374338091517296,-0.45865305268240175,0.7985021928140152,-0.33433518674804813,0.8385726795774083,0.05829870287877114,-0.3479913194810227,-0.63899125563674,0.2871634305040002,0.9148798936650084,0.6814099270931837,-0.9805468757420188,0.006739541965963127,-0.9341463398613723,1.0362758128569045,0.4199446792626546,0.4670324391209107,0.1320505773220082,-0.4068976803216033,-0.7075546559897502,0.6900355870839496,0.910391351234321,-0.5120137025867977,-0.8137981255524771,-0.028054838038617635,0.2724399052463191,0.29386603535181344,-0.578125223590821,-0.3099868950863769,-0.9678023400233757,0.8882670006371182,0.4576578357638572,0.7796980295317217,-0.23773755760679025,0.6215359371276026,-0.17195364419126546,0.12982800452284549,-1.01314866881822,-0.7002485861487197,-0.09687098266728739,0.7122861523130272,-0.7280799476425583,0.5871533633236224,-0.04013257353223605,0.6341093490219532,0.41541533453876556,-0.7062872783362469,0.55939704908479,0.8411331790755492,-0.2114716758812548,-0.9140976434749422,0.2581751144700428,-0.13292642291852808,-0.5185670097884438,0.4841829285936732,-0.18350257680341997,-0.3376904329156513,-0.8926162912178965,-0.4621252246179834,-0.6302963773611666,-0.22003137050481558,0.6968149495128119,0.2878891028722144,0.6521648556290832,-0.3537889721120387,-0.18628740733760588,-1.2232322247453737,0.2802543919047672,0.6510899064010036,0.39457220749540817,0.34210266899307784,0.382402153168148,0.8325801434086184,0.7629486745647776,0.6047745899878705,-0.20343495996784958,-0.8772497347851201,0.6002582984322778,-0.9329241952303278,-0.5570004390996028,0.1700127331794521,0.8449722376525148,0.6591755207189385,0.04650126754697011,-0.2609072471135861,0.3587785676919296,-0.6333769286419114,0.10477270535784225,-0.1722454711603078,-0.8953065716791794,-1.2216723050576546,-1.073628470268642,-0.46131354276508285,0.040909195570648135,-0.37883734175517714,1.1603988496290765,0.34152126368236346,-0.8190520058356874,-0.08437006429491213,0.6266147719565275,0.3140129963603091,-1.0946685999509385,-0.5564145802537255,0.04184427639101805,-1.0990959950678534,-0.014242028752831702,0.834863489055668,0.15703961931788193,-0.7392975207394489,-0.04243997973355684,-0.3642070416431431,-0.6880272141824633,-0.14976638937427572,-0.7107899577368157,-0.6920100330173713,-0.5756274694724954,0.16397469919006158,-0.4518875909416099,-0.7571806453568374,-0.41857810734124123,-0.20564412329224085,1.0258373928774374,0.14132075013581627,1.41962552743443,0.35419925127584945,-0.5538308194494743,0.8630275625772402,-0.7073592708945055,0.5695863602860222,0.15385386318740105,-0.2830886686796607,-1.1228034549547607,-0.6770363862819528,-0.8967180685479135,0.41618658920273716,-0.4334661123484464,-0.9198774582200694,0.5107995043062354,-0.8857681336163883,-0.6566653961091906,0.8238363030457523,0.11265448932080548,-0.39119550372805256,0.5463994255709773,-0.011875283979979395,0.41678746202168326,-1.38623719503733,-0.6868241723749865,-0.3108899373976423,0.05555875005993321,0.6684349743213207,1.3882258061470163,1.3781067452997326,1.7722518479601517,-0.36930430617521925,-0.3868428744620633,-0.8403662040412041,-0.06364858264760687,-0.41895564500299715,-1.0654186712149971,-0.2827122816533231,-0.8241382382812174,-0.3561774481382485,0.05395802317362519,0.15457405658053405,0.9621903495792368,-0.19038706325483268,-0.47290365881012614,0.2966945916948221,-0.7164584255111502,0.7722975405066682,-1.1195630008189896,-0.26132671326591633,0.1452154406097314,0.2866539777601087,-0.6780831221781366,0.18508448075022976,0.6216558218674574,1.2743550345429893,2.0118949594680315,0.31683892478329745,0.36178138290273226,0.9285337288767038,0.8005558010918443,-0.43318682865547303,0.3952087111840489,0.2995555740366251,0.6573228097027716,0.8644935346402254,1.073769173617652,0.21029612237397463,0.6761009209807921,0.34531560248729387,0.4536775870704129,0.4073946603146012,-0.8002087638182056,0.0973974099228225,-0.020350146961494432,0.7168947870798694,-0.8248378119364866,0.34864568465150175,0.9379020827794077,0.9890059357631525,1.1248892615318205,0.28422754411811807,0.7401779833074432,1.15194966693749,0.35272748710688373,-0.10646143103876385,0.3788419680667608,0.0172767762555213,-0.18282737364913926,0.037498227923202114,-0.14950181960205014,1.1394360215903079,0.9332039316078695,0.9507585755811069,0.7513914639688062,0.21107447246935188,0.9065241117413025,0.14714271182165706,0.846527990414407,-0.6910771160827108,1.019228001207729,0.504413845093454,0.12897560017641643,-0.5315347647750033,0.5033940118070233,0.5108799196338584,0.8910938224909674,0.5889396504536871,0.8017198849607053,-0.5896548090433292,-0.008854340942461859,1.7181838361317903,0.3512540342793618,0.5036761186781419,-0.5004241896127816,0.6099045491996465,0.394152206958572,-0.43390779805996116,1.3540753873211804,0.03908009127794351,1.1129097770737648,0.028664066512751475,0.10563513930073355,0.04603493380629436,0.869440008288066,0.3086815075747087,0.337172613374654,-0.18837948543158847,-0.23749651633117405,1.0912773031144518,0.8495612206573635,-0.4286980796115435,0.23955771733611317,0.03172876744307716,0.05632875779954033,0.5718342156795425,0.6772398673286532,0.1987537090014982,0.7305601811261666,1.0642754963643357,-0.7092055258381689,0.05687166685404292,1.0703279533283743,0.9571729115873261,1.260782446708259,-0.018533135339915113,1.1159791079338877,-0.32374712037411935,0.18396877549572835,0.17045269210156905,-0.317022606945045,-0.053059461277141354,0.9522276273300951,-0.8816849549606031,-0.6809470796296733,-0.31019668790040755,-0.44953356500504904,0.3513631490514669,0.9918828177931137,0.5725063991338357,1.1409458335229237,1.1258714879036142,0.4681511470533011,-1.190908247422682,0.6003404952178651,0.07485441720048717,-1.1083276817498684,0.1353603092200366,0.09885444229055806,0.15337894168736146,-0.6269304104808728,-0.5459408175486204,0.9254348435821502,0.16374241861034808,0.3253671396936829,0.7830138440247741,0.23042016719577119,0.9819820524599293,-0.2616113509287838,0.4276986822072933,-0.15968045501648034,-0.8494885996485395,-0.3167826406992842,-0.8539478426931513,1.1838005818466157,-0.7114872790854965,0.4726454121047426,0.1730020130454649,-0.5059104081722714,-0.4596014360547067,0.24987779504159802,-0.7605443135728531,-0.16416017335806893,-0.24171914008904868,-0.5060097594610837,-0.7851934182186908,-0.060913578385663365,-0.36550334051273875,-0.4448469227169362,-0.13589102430845226,-0.7834205141923049,-0.026806861040183608,-0.3847548697751183,-0.41439303277904904,-0.6668967241917824,-0.6796094855741208,0.8781672101992215,-0.3072031295473062,-0.6797486028564699,-0.7174084354648942,0.3098987587213715,0.30714331022691393,0.8455252985139049,-0.12766813490526494,0.7949869880462553,-0.5392829130764227,0.3599396750806408,0.0318334275243439,-0.9689642590077084,0.018914704079606548,-0.3168191141907778,0.7658757490892163,-0.23077876157062804,-0.4577770465034327,-0.19784687283143718,0.7729893860465145,0.5089705678708398,-0.04101066178063715,-0.31229580728484807,0.011068653969466817,0.5609264473382939,0.8303442395359568,1.1434040334696056,-0.4177561923321689,0.6092159124065383,-0.847620210210114,-0.815670284854385,-0.21561035800142703,0.7799249775529238,-0.39995203491728126,0.69425529416958,-0.07138312988766359,0.3415548186492868,-0.6030493546088725,-0.29663808688110854,-1.0313278595669801,0.49876652209023303,0.1322695908682091,-0.7608028323232554,-0.1848235447508492,-0.6233846289984268,-0.577686984467758,-1.5580879153548233,-0.8331963178124817,-0.15581831441485017,-0.14487082813803068,0.28277951401796514,0.31494477026540846,-0.825490159904861,-0.037265132489402934,0.03940597926536902,-0.11122042905753193,1.0041517607487578,0.3923401058309563,0.9225481952790365,-0.860345410215793,-0.7539510740453008,-0.6784844041791676,-0.5925419456348768,0.807620057954991,-0.5443123858645286,0.8027045611191466,0.0788774114637215,-0.17431474278334405,-0.35800078326241735,-0.2517256918118108,0.9033680131233756,0.7756225698273105,-0.08476588375510964,0.1360866309790446,-0.9365902338159143,-0.2710908239458955,-0.6267719188042941,0.7149118693782974,-0.4376710681980795,-0.21091620317757198,-0.7390209403689983,0.9534321601353585,-1.062933882752475,-0.8651138873023269,0.06779995949723785,-0.284352398739992,0.5226049044326561,-0.5392649188315956,0.9464498887370723,-0.39289392682780955,0.06757729143458019,0.8260802073736226,-0.04897135895986288,-0.6681893674254679,-0.1923921117278029,-0.5255476406556392,-1.219843248098165,-0.13217495937757268,-0.19512424958232052,-0.10644813267648721,-0.29125341564114915,-0.42236868484384804,-0.5029167116739279,-0.6807255305924415,0.7661288203185935,0.7865153619641597,0.15291786715705358,-0.5160477118184839,0.9532130867217616,0.1561183533610435,-0.5629882578146589,0.5145718860674922,-0.341128373026703,0.049314868944984144,0.9168145583864764,-0.38134793386781723,-0.36184717595198235,0.36951472899710724,0.643826858733957,0.0073260412986634466,-0.9550882971015417,0.629031710162294,-0.37758630631679424,-0.8382525060671142,0.7080839651630974,0.2546335601761374,0.7236925067797007,0.6846732899904,0.2557456010855548,-0.47799400826139465,-0.8457964020645461,-0.27031757595092143,0.1912975296652896,-0.8597936193336623,-0.1261255247750873,-0.10673300096906409,0.22842667871396022,0.34082796819329947,-0.5188749887281351,0.5295331209387569,0.06514072953688144,-0.004241522553968003,-0.2431883525253164,0.2360480272035793,-0.41578484602086885,0.6284632391240033,-0.6459821734707778,-0.20234975769157462,-1.1238812237695386,-0.6746399244759291,0.023178257003519227,0.34169411973239505,-0.277219484921319,0.5104106569083247,-0.8562322602877657,0.5821911483382817,0.24719073220132193,0.37299175438311855,-1.2544087135162094,0.22887030139209666,-0.730150136629473,0.514780407115876,0.22686017387610388,-0.7284438821078268,-0.2673633334541372,-0.5192118339799389,-0.1298657361559915,0.658869810261308,-1.0054957678296974,-0.08104799822230858,-0.6663930089374652,-0.38442894451060206,0.08418365944064066,0.9503496284304549,0.5751986537092953,-0.4313739830735207,-0.6865762230148302,-0.20974483215990158,-0.4408844067865332,-0.83074516208112,-0.13983797743354043,-0.2670574123234852,0.4259597230546973,-1.2774438834024675,-0.25969402002570763,0.2460415596506276,-0.32673881354155687,0.22492416190820372,-0.47306698044597906,-1.4112444146275676,-0.023173010210657062,-0.6227380860683563,-0.7505422505343992,-1.2513241931923231,-0.061149629276464806,-0.7756704200054942,0.27947940330277704,-0.2153233212933804,-0.8086401765563269,0.47123528453816965,0.7747059445926756,-0.45717045789220867,0.18531249538179315,0.2545055323164021,0.06580636006643398,-0.9920790835027754,0.4864965134310805,0.04033134346258883,0.04467901013321551,0.09548975010728797,-0.7280740517429338,0.2501434043258611,-0.6743780312818949,-0.7660899684589465,-0.7290146543340672,-0.9921096043132283,-0.8174350171248465,-0.6395524056503317,-0.12126928395601304,-0.3468261690133015,-0.4581618516854685,-0.8118780700844509,-0.8299787427648165,-0.7807662667527804,-0.11907054852206884,-0.5559130388937189,0.13580052171791798,-0.8782467174593158,-0.349256206188965,0.6475674041610486,0.9498146749828819,-0.9118488708309155,0.40883473250496627,-0.21915818053589756,0.26195005157622664,-0.4483552480759848,-0.9272038635651006,-0.6679686017557926,-0.34145754773089654,0.03415869982710803,0.30858583384138955,0.7345273878526468,-0.5084996183445603,0.3832450835153697,-0.7661650414880397,-1.0659006385123895,-0.550202711232377,-0.11229611694826792,-0.7967617634858634,0.280153761665463,-1.2198653486125417,-0.8378667065453824,-0.8795993512043875,-0.33598729991541265,-0.19802088003493448,-0.40839381309223155,0.8754604082433226,-0.5860095840852853,-0.6687330583783073,-0.19580364811500578,0.6509642604668199,-0.8462842431137474,-0.9916612328195905,-0.15101901754660846,0.3827736780382908,0.4363636743335048,0.20678536673051698,0.3447953872566386,0.0289286697330954,-0.02847901454520484,0.458896255931406,-0.5362321293806008,-0.08079136859171572,-0.33033537421478776,-0.7017813353443445,0.5905232227692122,-0.4132348822857995,0.028693535913490296,-0.8421647526546756,-0.9566649340738972,0.6754939717412393,0.26122024676911165,0.3912945375712115,0.38245716682879527,-0.15613354656144418,0.15819714339558777,0.33303654861078646,0.5300621049414481,-0.8479222884254841,0.36466177566009117,0.7319376444242454,0.24824782933255735,-0.23704084887892232,-1.2350126021102457,0.22569328583025605,-0.4856870480548306,-0.4009574587861097,0.05639579341569507,-0.09261549397744118,-0.5001415600856874,0.32878981246978534,0.08514720548951438,-0.20769842175691336,0.2217402707715461,-0.1725376222181515,0.9424784147391564,0.8679923016928095,0.623805521041264,0.07695564261635958,0.5403806525273499,0.994880264467719,-0.42155100565206105,0.8792328297674339,0.2013433357304475,-0.9162073151908827,-0.30466116459703857,-0.8457186698589303,0.9543147163588481,-0.14527550985153878,-0.008451792186178362,0.1785052420808614,-0.1412599296651265,1.0480864465534963,0.9879535445563434,1.2382178413040208,-1.0241210190914611,0.655739461460746,-0.27332985611374994,0.026920756770715162,0.41047115512107085,0.0006066208241413528,0.7404176663546866,-0.34325306931910265,-0.058217770691426515,0.713064261061213,-0.8607712961832454,0.9791642171613383,-0.9618408795958828,0.13775334268744777,0.8075446168778924,0.34603055484388223,-0.5653455399795746,0.6060707089927093,-0.1511551878336567,-0.18025012160732864,0.37607818569097845,-0.7243098942634167,-0.7371644045881995,-0.6634336301760951,0.22352455195860177,0.29671282710594116,0.5921255927359937,0.9879681117141624,-0.5383660425922437,0.8622497452057039,0.9773963936553891,-0.2249204467472652,1.068668241493592,-0.5190854339316933,-0.4620534998225675,0.2690110547072165,0.7895690550242077,-0.7320642618395535,-0.8041493031432857,0.012944812227392521,-0.08209944682493431,-0.8985672197550958,0.555786647499402,0.7710915411548513,0.504750162256626,-0.10552347748901436,0.521840591898322,0.6512039926584974,-0.06343727145153036,0.5945959321928684,0.11337854844667551,-0.26127257345328203,0.7502453494040144,-0.6321036280117206,0.658607639639663,0.4118059501561546,-0.893702548286072,-0.08816829906505236,0.37288710419594934,0.7727664455689885,0.7097027431029445,0.8628289795229815,0.9431366991341847,0.025011533158626288,-0.04589065556391965,-0.360213805508279,0.11504287178832673,0.9903996546599707,-0.7189952705534752,0.3906394090555936,-0.6899260078380358],"bias":-0.6856798824822429},{"weights":[-0.01660654576874876,0.012960136340311124,0.7142005387734502,-0.22341393648544416,0.030853034983181704,0.6149688468043157,-0.028615430183860813,0.8379871269225143,0.4032275015078408,-0.20867308965946618,0.4030315946745069,-0.26508163296150755,-0.5714209867658666,-0.8164517287167596,0.06878579372418736,-0.44539115456050515,0.19548895445648018,0.9893678540947315,0.7465928819523242,-0.1423037726086589,-0.7946902370335622,-0.18497736453433067,-0.6362788985374368,0.9762926792951512,0.3405902771645448,-0.4880271942324237,0.5437346187145278,0.638472473192782,0.3129514785384515,-0.07304003750719934,-0.7722538295204515,0.4184642225248818,-0.29212981495943513,0.3252256047766977,0.09956854726827347,0.28435420317989146,0.25847847654421735,0.3445032862411185,0.5983701635011793,-0.7032515139579776,-0.6312717984763927,0.0656721963474492,-0.7890670528834711,0.6567531649520107,-0.26066755473206693,0.5349639504694294,-0.4407411912744758,0.1442510409414494,0.31301764268917687,-0.0027613298535003323,0.7414138623168874,0.6573091832891267,0.9552199963140002,0.8524404114974216,0.9634714359654213,0.9185505282333399,-0.7600092999185231,0.08984598653369114,-0.5917992037812407,-0.07097462909961916,0.21860380819724956,0.5447706884651884,-0.837704138697995,0.16090759048994163,-0.05544418755184412,0.31605699511524143,-0.578080369543158,0.09956348551859683,0.27931145632007665,0.6584586279943216,-0.15255942252420984,-0.39522037941717036,0.6253375240150295,-0.4584889252018111,-0.16086527215022348,0.10409184233054994,0.7576805920248542,0.20988742297806467,0.23979573553092343,0.1134238577396746,0.34237313402469277,0.28912725488354596,-0.9132625898744444,-0.041322035353764,0.01543973152851974,0.172070376924629,-0.5749731375811495,-0.19013530551431845,-0.07660199897261002,0.3550503241765716,0.3187359509538413,-0.6323666193031673,-0.24663055187044905,-0.5766724955440362,-0.727509594965373,0.5793006259569125,-0.8709418269866775,0.8176746203490793,-0.6044050321302822,0.37507522264901155,-0.5000138773584569,0.8303138165569753,-0.24966348331171473,-0.8040016274152776,0.29094958639808594,0.27709158461008926,0.9638100870273191,0.8534778487521695,0.43139720401480275,0.3455143238999745,0.32881348898027074,0.06539686914076892,0.6929621659784102,0.27086313995435374,0.5734207643017699,0.9396751507475138,0.562316272008217,0.5722115067521949,0.06422871438780292,0.4912475536522524,0.16048633315166866,0.048943589278578635,-0.2620231145860081,0.800709672582404,0.370555632709664,-0.28763117244971365,-0.39280773398946744,0.46676955978453794,0.8476678459628245,0.30032797979488146,-0.08101947404215896,0.5771931409322423,-0.4052866873403626,-0.6903406177657294,1.0039732970673143,-0.4037388872250396,0.20636410428059382,-0.25927236574327506,0.9461078761620527,0.5573312692602177,0.6411280677680073,-0.10814797435684609,-0.5852085333964446,0.6634142325153954,0.10070444021612016,0.8194702582970167,-0.7426010226013722,0.8732693472994433,-0.627752958292654,-0.748272594287259,0.09929259496399376,0.24351373424061307,0.9498677958640106,-0.1594592158750187,0.14561491747613903,0.49857632946375047,-0.9641962319746646,0.31690665369844534,0.6701697533494532,0.6700425056555657,0.47059126125222167,0.0063799172161026,0.17844158666456575,0.12981903200585498,-0.03175949536161785,-0.0835056929574324,0.8801484684004753,0.5590629055427868,0.658713340933271,0.611669485266904,0.32743093024241404,0.14814432561933327,0.5463855821935463,-0.47407949648711445,0.7631036431597187,-0.369432251764787,-0.9342575135189196,0.07031004219748502,0.006578194482813824,-0.8602176160199899,0.715503184337351,0.18547229543060698,-0.3612969664929473,0.4414327249184084,-1.3379944886275723,-1.2875498489557367,-0.6258955669040204,-0.5581328672798856,-0.46933577668874277,0.7375998757690696,-0.24603758115354646,0.4992792259118996,-0.3936577413646085,0.589019933560194,-0.06695999929193991,-0.7081986484050854,0.2486071537424975,-0.062433185755273436,-0.9221175066491843,0.8808179276294718,0.8269115315392251,0.7434095605830743,0.8929378168411045,0.4850005012152632,-1.34929911758214,-1.2246896451948686,-0.3228771372452563,0.9738469893794406,-0.2602106824734101,0.5778260423901552,0.48440466007735417,0.29397954271573706,-1.171777025131056,0.25488860403745006,0.03135932662151388,-0.7393203812892316,0.4895357592355606,-0.8081395527964177,0.013423032450964224,-0.9510469439430276,0.9085120991768055,-0.7590553676431513,1.0240973876437265,0.6338132142264412,0.14998522791996313,-0.713483130305798,-0.9335004454221205,-0.4274405193769765,0.8780823124827826,0.2628943200123347,-0.17201935578884042,0.36243200617446486,-0.7521471643400942,-0.5490431883748225,-0.10858055540813782,-0.8410031030865023,0.49735726083825,0.4891616735371983,0.4642441749787995,-0.686905309093318,0.33894909575584303,0.5197944122337396,-0.786685511210186,0.158686987101577,0.06647307005014219,-0.050279836570509,0.5138341038341258,1.0752672839526558,-0.5450910211712512,-0.41387476529794937,-0.6857196300255717,0.6080133358329396,0.581233820706712,0.4362005276722634,0.39150274362951176,-0.5653931165480028,-0.9466350788741003,0.3927617345503644,-0.12467704290792794,0.4694354402287445,-0.2842352138167725,-0.4164579374484948,-0.019019149048530574,0.5586015337938834,-0.29286814894880353,0.1342258835300466,0.475505248738827,0.06533025472197045,-1.43675791619994,0.5085457084110625,1.4783356758879111,-0.3161610627960483,-0.42470388420893784,1.1778166080387515,-0.2209332693077687,1.1549277935609987,0.5550947441072639,-0.5880730160424719,0.5886761518073264,-0.11210097718616419,-0.9163010406735443,0.8094494375694105,-0.16837243169926122,-0.5364920271956591,-1.2757589646708778,0.39255612689728886,-0.47943984651090665,-0.3017398220015785,0.9276913650173467,0.012702226770645928,-0.22781083787085862,0.22845175306965762,-0.21976782460779468,0.8962191368497232,0.9462258972582134,0.7939632924537579,0.3309574934931852,-0.8484675735630727,0.6747038724905984,-0.01638585472915801,0.39594559646683175,0.4560594006476612,-0.6853381405711779,-0.1777829135709478,1.1678712630113472,0.2188757904304653,0.002220483971549869,0.6383464818530257,0.5309129809997479,-0.5621002634652639,-0.2649868375101973,-0.08447185810939319,-1.3623727043226903,0.4114313160398128,0.09261807798346562,0.7426486943796344,0.029575958484576795,-0.697874808217843,-0.10934040066732537,-0.800074414582503,0.38286688350751513,1.446277996872214,1.6395602445638349,0.10928425564603364,0.4022036771260079,0.6130775855932409,-0.5474276607417434,-0.08195878388034793,-1.0593521433530855,-1.246334321622363,-0.7968744593244839,-0.3794136891662127,0.0206667326234432,-0.30006423392586673,0.21551569975705767,0.006217696675533124,0.8657681849895145,-0.8887252567659786,0.7929062982944869,-0.5763949750710541,-0.7540231198705033,-0.8314767505383086,0.04714224490970289,-0.10377140491666281,0.001785328702941921,0.177129563235477,-0.9361648933792726,-0.910729392763086,0.5472041655696811,0.8626693977759585,1.180459161321195,0.6482989004470253,0.09125403216535458,0.06281139796334916,-0.033113277148104095,-0.17777991358876877,-1.5276326902231783,0.1439671001253948,-0.5486029521093699,0.775668563324426,-0.8032283704526153,-0.02046359941027557,-0.24215112831697277,0.21798076343395512,-0.5021030913421369,0.7994867728448253,0.5472095690334279,-0.286608939539984,-0.9904986708837197,-0.7452368636707692,-0.8177661848879986,-0.17219334517411883,-0.6760930975654952,-0.3171815422882402,0.7665230527296882,-0.3680991953983205,-0.3031000062393088,1.4227353419524136,1.2110752729552643,-0.19822933316530972,-0.12607583947228168,0.19849268517603516,-0.7901670016594363,-0.8567738770621984,-0.7476586436468871,-0.09782909790404508,-0.6371765324915757,-1.0806335694699425,0.8294754667174312,0.27632983867418026,-0.17313246870591284,0.3831781897274604,0.9773379878870347,-0.9645402464722579,0.8711128553494142,-0.16722936563835417,-0.5839773760002316,-0.8353257863911091,-0.09706614636462729,-0.41458498727650406,-1.6019677471155789,-0.2239173959175371,0.6505338929809651,-0.5873997327199343,0.04069062060120899,0.923796914814213,0.2374155940646124,1.0562170203919787,0.27489716550555376,-0.8076979166788735,-1.000684484828408,-1.1092158339860945,-0.4592453369444805,0.3686416681981582,0.5042840883861455,0.3348794624125928,-0.6964902518488012,0.8391116208723264,-0.9191244556535079,-0.02298268612194576,-0.6963502639032413,-0.7561910923346193,0.09583489684962361,-0.6662747776118592,-0.6382317394462764,0.8639459434066169,-1.1348334133600684,-0.38672975271260224,-0.17264928871542287,0.5521781565368652,-0.4779809833718942,0.04523772379417461,-0.9131968439723044,0.6680717978865067,-0.35352490512650114,-0.2068939442932339,-0.32524835077294345,-1.029455031344724,-0.7001078763584374,0.5366583484455346,0.5094445257736223,1.1269712366159574,0.36986621286235866,-0.6243193924952076,0.6463175301650949,0.2962444232986246,0.060545585434234064,-0.9647544740795386,0.445898736055121,-0.43219031683770837,-0.6815502800788595,-0.022874900601561093,1.0334153611852237,0.6680672712823666,-0.9147960540512821,-0.9472358641936528,-1.1850181907991124,-1.1918979576248236,0.45380451681997436,0.35889360021517414,-0.5752353300488442,-0.32768046330956885,-0.972085340950524,-0.8877671292324385,0.7201567518453481,0.17226560856514622,0.09974016815171995,0.23230568193412277,0.40809547081141684,-0.23809664218452462,0.07106552016936364,0.9198893991710891,0.1239506619169232,0.7081789122500921,0.9396167684154317,-0.20083030824753592,-0.8737065584882484,0.6170932600924899,0.3278444331427814,0.6261940946918285,-0.5552128101746513,-0.3405047532810786,0.2138154883756487,0.00043972268659516194,-0.2026533518274285,-0.4205515865910867,0.4713572486590263,-1.279964920679964,-0.06385622770933828,-0.7151683035611373,0.23218204356859998,-0.23531499085896873,-0.11632765403737372,1.021710302512836,0.43987271263537253,0.05922454684814123,-0.38264289152340064,0.22709448176889788,0.6994395985238091,-0.6621640433151736,0.712232520338232,0.434318929001342,-0.5392890498888805,-0.392121507564844,0.8063966619809224,0.035533615459180545,-0.013523715822207513,0.7287621161051819,1.0032423764510519,-0.016991528297715122,-0.03570725777903639,0.5021645338777806,-0.6411319442279497,-0.9521150532927138,-0.043334625004233344,0.6514027377016973,-1.1861505388313827,-0.7268819002443316,-0.12750526270328685,0.7037743466984829,0.5154908567188526,0.5155498506592032,-0.3510074175998277,0.4997795629029129,-0.6915650476553036,0.4473131415090595,0.4911535444876065,0.1439239845209027,-0.37757522842855057,0.38349374561343547,0.801664209564225,0.8382668954488057,0.028859499568206104,-0.055480688135572276,0.51060555949416,0.9083267557989523,0.8011897786342582,0.13497956545924186,-0.5124638591923943,-0.6975969388129556,0.3408426950667977,0.19020654400479442,-0.49847875423204935,-0.02157265471826904,0.831309230552598,0.41414568093841814,-0.2463452822538596,0.1439587552495656,0.6998672529423187,0.8195387762159353,-0.016193679433753456,0.41520587780900864,0.15151781523813027,0.1352509690183373,0.18580511269878336,0.710935223720223,0.3704352269688761,-0.24902397830410392,-0.5393739772348988,-0.511993220886058,-0.18937622765220308,0.28256451721571185,-0.6122698450706222,0.7601835794838496,0.6673623469693082,0.2827509029627852,0.4549674364131811,0.19479361655541724,1.2412000055253007,-0.0018557480633692607,-0.245559477456002,-0.632447005768528,0.9389276699066821,-0.004259438667563552,-1.317380729409555,0.25805376651189693,0.3371004649645968,-0.4185671883824313,1.2966736049881409,0.1839318695259772,-0.3379962768684778,-0.7095872582283452,0.5074962735335872,0.6503371465860234,0.007361498001171417,-0.9171335592268356,0.8304670254492622,-0.8921968670473099,0.10270794427069818,0.1843378632821091,0.6900641235174036,-0.3774091479788737,-0.010398481606161756,0.46866154463496307,0.7796154079017669,0.31839982697693586,-0.9463619269092628,0.8647413452150335,-0.5798618043278881,0.8952297372123235,-0.5582294904317392,0.16640511414950693,-1.2267168796213894,-0.8958673359533746,-0.5273548291063316,-0.007582821065724189,0.5552627826008689,0.871716541641492,-0.37528898208064776,-0.08313304636209505,0.2231140562099649,-0.2604971365243771,-0.22709111269454607,0.5931661030883584,-0.5119764819036694,0.7360797898736324,-0.5496171523348052,-0.5065169692312828,-0.23637805587225305,-0.02560476421531495,0.35031121426373957,0.5380046132624918,0.620096396551328,-0.8344075443831672,0.3871197496048451,-0.1819398763213164,0.7333999240608234,-0.3859230973916733,-0.057291100090414895,0.20598024952525187,0.7728830181253941,-0.9249884808219285,-0.4548311850096178,0.3729906527613062,-0.31497453915502477,0.3110678076331717,-0.25906649721933933,0.16195271837144215,-1.1302730414342053,-0.36707012675267714,0.284013122561065,-0.4976951255202274,-0.015700451213803677,0.8509465052080736,-0.7481626982453315,0.33257115234688284,-0.6049115071304931,-0.8646868709020785,-0.33702703744445855,0.015920303592924793,0.40989661757658324,-0.009202070875452084,0.7247045552805266,0.3627258913131934,-0.5054930801757821,-0.7535678944579625,0.08352566952428749,0.9125035922621187,0.3413836475105642,-0.4621873266524423,0.9760019404888913,-0.0627986755806645,-0.46618178819899153,-0.7620146643907703,-0.7590474044009078,-0.043556422128496995,-0.6566990263417173,-0.4596016523979033,-0.9455556872595684,-0.8029728062000918,-0.7807015185787636,0.8512554313060083,0.12660008740951012,0.12002347722080486,-0.25872674341518165,1.078325425422853,0.8877634472837131,-0.09038019489862804,-0.5250366074217363,0.6140249609557697,0.9174823664064012,0.5422911847461036,0.23973798074964328,-0.32357787842184527,-0.6137498606422497,0.7428416257461831,-0.5250910464132483,-0.36293547452836455,-0.7104522129922987,-0.776096852514,-0.43496092559476934,0.8679329166208971,-0.12924343812223155,-0.8820138779010529,0.09723877179221055,-0.07443964789275788,0.7339167879764386,0.5816646194352573,0.12995353845861013,0.7140369731678318,-0.646470582292904,0.862652451472885,-0.444988581144381,-0.995792466911852,0.9848832703935314,0.5341365235404737,0.20675837325405527,0.39675116322400467,0.156876943853663,-0.8255838889220192,0.2880999572334048,-0.22447101006652598,-0.10853300954988365,-0.5542322479869048,-0.42816809033000586,0.32592471553014163,0.1773008903909768,0.5681578383593778,-0.6920533220666281,0.9812540678982055,0.23727876221041108,0.4103822417135903,0.02085963033782617,0.5013517465438571,0.39542420878187007,0.015620586399105463,-0.9832578159444516,-0.03804897574586974,0.5773197847381457,0.14783078654603,-0.6158715443936851,0.3098990083963837,0.2149866979077874,0.7975217591556665,-0.5232197164790277,0.5080372574581945,0.6623215297886211,0.8205618093778365,0.04131491876351543,-0.14937726876166682,-0.035397507308461335,-1.0182092019351614,0.6235748627214467,-0.5372710191062706,0.5090161961738882,-0.6811674705142118,0.9067498674987773,0.6103544733379755,-0.43982282482348056,-0.21453927736721845,-0.6261297505589523,0.17790556389680137,0.18202309353515922,-0.9505004870611256,0.47504175828216777,-0.2757206467990718,0.22268056191031738,-0.5041065243020877,-0.27970533967662714,-0.96888683016171,0.6212933438742105,0.38206886285623537,-0.6661036106541139,0.7498713859164695,0.7587581266271484,0.9282525609191336,0.785714899975637,0.5194530805183137,0.3032503575228443,-0.3120630744849213,0.3327662419849973,0.27939478015235636,-0.1878311737095549,0.7055939956353785,-0.5252855643373618,0.8187187667840287,0.8565629682875745,0.7514532651477076,-0.7573502127380554,0.15735827135144564,-0.0593013754111924,0.44918086238045873,0.8224367607290337,0.4705950093090343],"bias":-1.2133379178854158},{"weights":[-0.026516498661257604,-0.6536557938719558,-0.29874535659129053,0.44485677513675137,-0.6646509695821945,-0.26488261116217204,-0.18474470267080845,0.10309732104479608,0.4373823036642408,0.9329101172790115,0.23297872720043022,0.94681320013555,0.23014658793595943,0.6666138947212725,-0.5743267534955221,-0.19559884668579963,-0.3940036023373943,-0.7671291427009939,0.02435243616513061,0.8488048041674738,-0.1894485952368039,-0.33035614997159746,0.08557453675220916,-0.5421686137177946,0.4680728523971309,-0.6816932191113336,-0.6006745753071621,0.7155595513572606,-0.62800943387747,-0.25119779221513694,-0.8895851693545525,0.9577840687184533,0.8599772457537269,0.4892268900880916,-0.5397888284110142,0.2632500772110928,-0.8653236972721247,-0.6411995573052707,-0.6626728243022675,0.8792162684169805,0.2607952117321448,-0.1381740173701508,0.7732206148930517,0.9541153910028968,0.8573011045719624,0.973609310644312,-0.09651434749752542,0.1716297137962832,0.5308255413670562,-0.6044297984673696,-0.5867877495697457,0.3461934832997864,-0.8156217055182213,-0.4034567203081001,0.4360204957105962,-0.7645400229839403,-0.8520280581414061,0.09381621482512692,0.14799121017191652,-0.7520584871176967,-0.8440174027073191,-0.028850054098746566,-0.7107359430927667,0.8564044748784564,-0.4627048497450821,0.0531809666433833,-0.6048646533757124,0.542945595564368,0.40827305918267515,0.7516832945690836,0.6385386062495436,0.7282898550899639,-0.08313448405810811,-0.8060018409606096,-0.42756054125055565,-0.6284800720406517,-0.46693884985930734,0.02993396801140065,0.2450071594009198,0.3640616893854548,-0.9194447777574855,-0.3918457100757511,0.7713247867404882,0.9173931215675322,-0.07375847392068557,0.9115899723171137,0.06271383369360173,0.3809904700622675,-0.4385280655859844,0.47613132059328744,-0.48496649046535983,-0.32839487923822414,-0.13405725710415087,0.5550710899373714,-0.6380959448695476,-0.23917782519488545,0.09228421561477543,0.9322144205695798,0.09034223049441222,-0.5857514150348412,-0.05752685405685939,0.2773925434502778,0.597701174627331,-0.23834393529515263,-0.29474108885864264,-0.37034586468856934,-0.26112331025458113,0.3736306393864239,-0.8963994090420687,-0.3112871474927519,0.8918387058103021,0.09928964269185014,-0.9093054735062718,-0.10582830750845185,0.594143964566483,0.38328900094558355,-0.6981630324669521,-0.019804099197478425,0.07623065169079929,0.44925693549659956,-0.3735010096685217,-0.6285009206102142,-0.1922070848415012,0.16020165715148132,0.05569944096089489,-0.42234662097553116,-0.4148785630119438,0.126845816026352,-1.0147703401761543,0.289778031358667,-0.2652369018060282,-0.0809176761824095,-0.3150722824419145,-0.01934804900633417,-0.18411230097172962,0.1679068872905723,0.5045074582689848,0.19505593156368495,0.6563374507192477,0.32223211924187734,-0.8198160524419911,-0.2529700011912239,0.7416851515262182,0.4280994126194398,-0.3090311847648257,-0.34707068275405717,0.8761436286661809,-0.08595302019713066,0.14520001400992386,0.41829089784535817,-1.0958029876974955,-1.3486871168526944,-0.03015224881085507,0.17879438575396897,-0.6161757230920324,0.3008232056874054,0.1566534838191107,-1.0094103986556424,-1.0072059588570808,0.18612311254857808,-0.6425833955146039,0.3871585686490359,-0.395550362103861,-1.0360883674357726,0.1444484072337622,0.359573992491902,0.3811474447187297,-0.8334298435761919,0.19566441740480256,-0.585357298019582,0.04378992087936801,0.6257306238898239,-0.31704303197719463,-0.5920250257897607,-0.23249197104354793,0.7587473190975411,-0.6210146317461404,-0.49344985033588074,0.46259575684905535,0.1984477536111696,-0.2889153661635672,0.633051266487727,-0.3699067220886038,-1.0404438268528222,0.057848343770374774,-0.6515586058796087,-0.3261524029518192,0.3013583913143679,-0.0332591050173497,0.06839494390320257,0.7160215575670403,0.7761993090893319,-0.7364908818081078,0.9509755482729593,0.6416897680556534,0.07363293547295328,0.8823892542033888,0.8169569183795631,-0.9207827639652065,0.31334515419037823,-0.3128005540591863,0.4160475526176953,0.5784218633575705,0.33076800318667615,0.6764649793650852,0.72743732303045,-0.43844494023176767,-0.9425647844764681,-0.6363338002272989,0.28068165445081894,-0.31561343474442344,0.6174234136486015,-0.06375016086771386,-0.7579804976894274,0.6465016563429522,1.1817765505966908,0.9159354040782872,0.43086045874517626,0.39107995890676134,0.9558806559801042,0.47489323782926796,0.9846937000861842,-0.8819466841768392,-0.5221461262672228,0.8671002033580687,0.3366461614548163,0.7235255588587755,0.7351146135072063,0.9656552410425698,-0.7703564041338217,0.9052811554840242,0.24747316371908112,0.32720763922832835,1.5205146425129081,-0.06535087150383531,0.1404466601381766,-0.4618115414518585,0.285297997561061,0.7576960540654891,-0.4068539025068835,0.3848442579835442,0.42957427296908596,0.5216111012532973,0.13511879401630145,0.7838365340808983,-0.02129596489548072,0.6029146702100789,-0.1374659629094955,0.49229358259819417,0.20667726638603742,0.43740019947529574,-0.3552152337133502,-0.14757186137522726,-0.33793295796200146,0.5988628323698879,-0.04174090599341147,-0.6447815187542774,0.3404254899479209,0.6277173171788915,0.2963501251563001,0.2373407994563571,-0.37902703578376185,0.35227553165295217,0.38894946373603956,-0.12904796099701782,0.008066023033496144,-0.8681742631225308,1.0348820223627397,0.7331379007190575,1.095654691667101,-0.9837519733295916,0.2599058399370847,0.7662883934883239,-0.24154884736371088,0.2451920723605401,0.8008576763433136,0.0736303923542924,0.47874809026539206,0.5753935329932361,0.3972573990100918,-0.4463628903350352,0.8411210345866031,0.36904655341652826,0.1177972694326298,0.1205639965802702,0.4210980843629981,-0.8484968861375382,0.24357464504272172,-0.3285588890883424,0.2785684437756299,-0.7223513454852512,0.48618259856855944,-0.6036575399501946,0.6819009857305895,0.3977285663570396,-0.39449121534865395,1.703883909137488,0.26817173543220396,0.6435961096456815,0.6102564762639106,-0.0476575085876998,-0.7480388868256334,-0.16332773953884516,-1.0136372472735558,-0.759138504600575,0.6329217984803646,0.15449593465098777,-0.08727523761690795,-0.34361733401635464,0.7656598502393448,-0.5974797196913354,0.45539240411085347,-0.19595776316338057,-0.22174497246539315,0.08295556510274002,0.6740449904974526,-0.2835433125787947,0.277784174788157,0.22291930763115847,0.6505656129058385,0.6698028885689857,-0.30626709940932395,-0.026377441231670146,0.043719647135224075,-0.23025450907534828,0.2734374093831367,0.5114601699553506,-0.037386378048691764,0.07056700371385324,0.47434863792137894,0.8334491017963229,-0.8247750349308164,0.4987418910919019,-0.15155980724798077,-0.4363511274131738,0.7306764396915502,0.8358360372813398,0.17698352996494737,0.882408456597967,-0.8343978954035427,-0.05775180227937274,-0.5453529438445506,0.11840244725930424,0.8563394274083597,-0.5104846556812073,-0.03105979179443438,-0.9107451519610353,1.280526056656076,-1.118552771361431,0.6797313200239724,0.6039566308908821,0.6266045116547593,0.8227182281934543,0.7356988355259267,-0.2447201197643804,0.5574370632328778,-0.21781535188736503,0.5574361650957682,-0.43403235237556803,0.5479943657748589,-0.48448127591032947,-0.2634411771876546,0.6556567589717189,0.44731001952869887,-0.8889147649740683,0.06952109084324684,-0.6845010066297175,0.2191194560716957,-0.32636393216009413,0.7129686671027978,0.22416921545374052,0.11940613040347407,-0.20445540569888904,0.23547178375496117,0.35989161666800074,0.1821671565651083,0.06481553192082852,0.624303533238572,1.0446865173049917,-0.30102297198820815,-0.04355420973358839,-0.37056056598316117,-0.4323971549900987,-0.5022445074258638,0.9147594455635057,-0.46909667320235926,-0.052225091048020846,0.14622922288478252,-0.4325835570552704,-0.37013505156032006,-0.6068091999502292,-0.5855023611175914,-0.3374113136256174,0.18755610103930878,0.7364798804235166,0.0043025220639460165,-0.31160950854125824,-0.3081271374911397,-0.20626492785378397,-0.1884229124356475,0.05290991314114464,-0.4576421182024819,0.26842259697004983,0.5630464549119965,-0.17821599951278527,0.2501853379923654,1.263457612884906,-0.08708270008595084,0.4473429638974572,-0.6665548001761918,0.39458131076404657,0.49285579863219114,-0.2794573330632683,0.9836856273439302,0.015550776998633763,1.0178639755397527,-0.47731047084892175,-0.8217225334438838,0.08010166707635183,-0.23586941951551932,0.31519035850076094,0.7480519392967682,0.006909651677824965,0.06592031522284615,0.2721309888910247,-1.0669537657378718,-0.48622303058717126,-1.5536627475437719,-0.09304574153962157,-0.5298260261601058,-0.8000886112936841,0.19307094493178287,0.8554860038176454,0.730025733717784,-0.24295660216085826,0.03274984850283119,0.4529854066106141,0.439079772952462,-0.3872924970371496,0.15965681571890616,-0.1999859145314831,-0.2100410251783271,-0.6587051368451278,0.98078251507844,-0.2734499373942426,-0.40122310618935925,-0.13781498143036008,0.08876900701006807,0.18582975853281125,0.6989479867199813,-0.240818186673757,0.05727355263133492,-0.2456562516811143,-1.0127028645048286,-0.041666848873451685,-1.3919887676524394,-0.5501870848772423,0.21126865085358143,-1.0637385805574198,-1.193698754272767,-1.0131872716560064,0.9756350036698367,1.0493619126495832,-0.1505598195235568,-0.7567847317120496,-0.2960618822766407,-0.4120470923437796,0.15509481047961707,-0.10283737220904063,0.09322398957322965,-0.9103943098086773,-0.6502871539148354,0.06138732206527081,-0.3880829475997289,0.702350186574935,0.15027866683815086,0.6425428724825499,-0.8723907999921199,0.021456502999586277,-0.5713545303603649,0.1294387375757984,-0.967977306333454,-0.02940460028397996,-1.0827803905147373,-0.4312844239823327,-1.1001620504470737,-1.0873295396494886,-0.9836627116630662,0.215964851129719,0.8221600536013685,0.04050790162216636,1.3030716108579015,0.22369701957900806,0.1394865259299244,-0.015078122630345261,-0.1268090820409712,-0.16321624889754877,0.2643114189373023,-0.8053236207824883,-0.5231465352024046,0.41272623675500847,0.2954487851331528,0.08431817584618408,0.6873345069041076,0.8127366679554422,-0.8145046207232713,0.562948082621602,1.1004366655474842,0.9173508485376326,-0.11158360554230672,0.4371293172442512,-0.4311555294662528,-1.6875551426259523,-0.09081920557429905,-0.8819399189532738,-0.7968012288706021,-0.6540601322081572,0.43237074424709665,0.1786943212831806,-0.44225046065361817,-0.30184091359035814,-1.0929332967726797,-0.4719418472810627,-0.24015371099190902,0.3805370634517776,-1.697994335205414,-0.2908901095667915,-0.7479624681055737,0.0533882040826272,-0.7493460059544627,0.5534889884458017,-0.8117763361367615,0.9921188819705051,0.6186652472141776,0.5496167445747582,-0.6310445940848342,-0.5728893052646539,-0.8905744627899526,-1.1095481979358948,-0.25163828527022924,-1.1177381752736075,-1.180779862641584,-0.45331847189325536,-1.4857677857343372,-1.3374832380855486,0.3505634324624317,-1.0332076686204923,-0.18239914052610548,-0.13542649850854985,-0.324646097007646,-0.15969783770006366,-0.7230701066397236,0.24450779313636384,-0.3766655984881438,-0.684383804655182,-0.9461297244505305,-1.0006680933839187,0.30527174741242863,0.36210960002471027,0.052312033416206924,-0.615676264561333,-0.632598052989406,-0.21668878154843144,-0.22431284107623936,0.6325082522405978,0.2488707130860927,0.5218354738562155,0.21063532597253876,-0.4146351079173934,-0.7538662803861726,0.17960389721523526,-0.13296289472179468,-1.1769844171386576,0.17743874320114927,-0.8515158540854789,-0.4535548348663506,-1.1844521330399853,-0.17547524272554377,0.08660139435757673,0.6136850985219638,-0.31789677512825637,-0.014479579478341777,-0.694185341604209,0.8033986706764646,0.6407860587304219,0.21080552230837316,-0.8916000951716782,-0.6178774585066229,-0.1244936395344145,0.23088822020358846,0.05961590504166258,0.8483817545001395,0.7858326351907441,-0.37769950951179443,-1.387170329726744,0.11064657195794858,0.20250697270319562,0.4490839122981238,-0.31627825809935833,-0.036703832294368736,0.34665050432645733,0.42757578160611676,0.8335454281467661,0.7060089982259055,-0.9934737341007107,0.48704031560250644,-0.772605102831991,-0.6961779456728854,-0.6259374231876834,0.29472391816013394,-0.8744678920889258,-0.537572552006919,-0.5900429317339884,0.43433514893373265,-0.44648282051522514,0.3123784971421735,-0.5014376933624032,0.6994586561343126,0.16473186399645592,-0.4020651615156563,-1.0337745057849759,0.11432969947168253,-0.7115665806487044,-1.535761884993755,-0.2640272003707543,1.0898737055084045,-0.5845055678537688,0.19897979067384688,0.7049112121439716,0.2861338277162547,0.3280943874215905,0.42676159342233755,0.18384735637777225,0.7514581232428351,0.11054195535840254,-0.6842016861958645,-0.23663849046927324,0.04111748186233665,-1.0787599575405857,-0.19905157609344004,0.3318490528155766,-0.6197605055111582,-0.6577200379391981,0.8595554807191945,-0.310004197581605,-0.5789355726973184,-0.24603596012251092,-0.08201068920133578,1.0894561422619085,-0.29097028009259107,0.26609377690658154,-0.7661297025551674,0.9275901866118466,-0.23512482386338768,-0.4276244973705688,-0.007759472256943306,-0.6395897743990558,-0.426409729284197,1.4240816548363455,0.7676406215829708,1.3317678721755153,-0.03132022626446471,-0.08616689924268275,-1.140311686903809,0.20022167295707383,0.23733476098535414,-1.392322893501603,-0.8580884204933907,-0.932214352573147,-0.44662809993765884,0.6890573267028862,0.9112491252985029,0.26777423115943355,-0.6706851732648471,0.44649593254699793,-0.034262150791097686,-0.32043501087081716,0.5171524603511268,0.2111005694710037,0.20862172836881226,-0.6760255392436397,0.2165858916843148,0.22804652552531457,-0.015938186585295413,0.16628254620683328,-0.5420750050764401,0.3942298393681142,0.7663529118821313,-0.1742493669625622,1.1867808195277085,0.10211499526404275,-0.7241609057293734,-0.5027871134931977,0.4110339711233125,-0.599873101125409,-0.02078826683224151,0.08320303792419288,0.45414059037694177,-0.8114674010359706,0.7850893858001382,-0.23647411703575383,0.5167587373057674,-0.9863876410958774,-0.2167545819152197,0.06705313942946446,0.019603909452986942,-0.07958720525353746,0.7627183584816477,-0.29952697114420995,-0.5000025616246963,0.5801344148611438,0.87196438883995,-0.5441702606045958,0.49274471525302244,0.3079788094557282,-0.16622227874207146,-0.12625724942072875,0.23322136823998477,0.7626721804050248,-0.7804986284740456,-0.4806122465010329,-0.4416271867980076,0.7733273940088449,0.9572634749483376,0.05142266977725179,-0.16772672261848065,0.5629760992822002,-0.9217757175761951,0.1676501840042337,0.6966015859997334,-0.18959000554078953,0.8215876766363698,0.664958672573791,-0.7887454070104842,-0.30394111449800193,1.0755463732455413,0.3986058709003847,-0.5222282866302076,-0.48033231949485317,-0.7396228575995749,0.6889352948631331,-0.18433339509181693,-0.06532095778230554,-0.5777885487694517,0.5532803153026802,0.4743592730017132,0.07980392476730103,0.5815518316110794,-0.12389771920587889,0.8198690565868376,-0.7430948874897323,-0.39999219801971075,0.8932393900702418,0.1542778105561866,0.43068089056078707,-0.31427568961685726,0.3725733590529692,-0.8512690589094314,-0.5234422306408333,0.7818750947122775,-0.2372080578979805,-0.7711803352538122,-0.12358889304435869,-0.6675319680004367,-0.06674190176189143,-0.20467873918031584,0.9383095291048383,0.7067433672962752,0.9031773466377641,0.013222099820496673,0.13802660633355365,0.3169818055260556,0.7230369472268996,0.7051858413394907,0.5077446408741104,-0.6000296602759927,0.5154738901083757,-0.683503863159205,-0.5766651621240991,0.14746154026399205,0.2006182166405326,-0.2678935017744952,-0.47605097565207544,-0.2752517568222528],"bias":0.8118136034340132},{"weights":[0.233740623207213,0.7306284893549755,-0.17813186106184853,-0.5646470847673162,-0.014958427427046672,-0.03863079320493368,-0.14947114915762683,-0.3998482413972173,0.4529552861157531,-0.35775491049147057,-0.3367065827037514,-0.4648512044463553,0.8543746430557686,0.9530914552323027,0.44840701299882024,-0.14065281553909603,0.5851228367288464,0.5503933531477538,-0.5145322728506989,-0.33992549114962234,-0.8595764623606414,-0.8620250043646962,0.7088776257709299,0.4564039580164425,0.9939356728642008,0.24756422937638156,-0.7176491123699713,-0.21704914932821362,-0.8918805232796427,0.838038494746983,0.5994565279676753,0.36191745158601485,-0.05233448041168387,0.7408771112131629,0.29806214824423893,-0.057588345711877695,0.21486114845432874,0.6664691422630924,0.09613359605382332,-0.6708855452544755,0.03503362255494079,-0.41065858734431254,-0.598342998773272,-0.02020074589365417,-0.4979995468026908,-0.5797388363701013,-0.9782664395800813,-0.4874901209002578,-0.18735743615605768,0.2436139448611873,0.1803201333505659,0.852412719513659,-0.299053410975445,0.06394246788620395,-0.029013975248959767,-0.8895471363572622,-0.8083683204485501,0.2668501370610108,-0.4170295584253507,0.8860131005377627,-0.4238507833659346,0.4828986283962767,0.038077956237247794,-0.7152485861950054,-0.5556641344163038,-0.24358923594811746,-0.9781494014650047,0.8559703460243402,0.44320269862229805,0.39722020929357466,0.6862127415291019,0.5962438844556058,0.015292805341151874,0.3497579476876699,0.8133330381902447,-0.2565546728963086,0.26808483916124215,-0.40283474209471337,-0.30734348621048124,-0.36319916507996647,0.4293007290794019,-0.7638364317739867,-0.335953967052391,-0.9678508098141831,0.9320988863505448,-0.1934157703097541,0.2150565731511862,0.9457184704129928,-0.8006800360704261,-0.8316508320425158,-0.39050920123447924,0.7490194247027981,-0.4988366237034497,0.060169516433758584,0.43260649294606196,0.4298277309590306,0.020763684338801186,-0.4502971595221243,0.4862308214364233,-0.5626628891094857,-0.25104034738841313,0.6676080030128753,-0.009920073345459485,0.5800572711060547,0.909287208493863,0.3139613081189329,0.11078075839098513,-0.17528255821954372,0.14172940453167754,-0.34519030979433873,0.5130934776368141,-0.47202332468394337,0.2413682662442791,0.16592401969281934,0.5907481164648924,-0.9510662534857254,0.044917722639179085,0.043744641048550685,0.22023470162748843,-0.48779584791957864,-0.017029946354874856,-0.060236538475310755,0.031059403280692562,0.16723352651158904,-0.45641741974185585,-1.3177869773062378,0.1358023238453884,-1.0128915782316352,0.0247612592062075,0.869919541849528,-1.1445722424671705,0.5473907673407277,0.23379166533314516,0.9864222389415644,-0.31835539087572157,1.1907201868407273,0.15226618732741767,-0.43626942433063914,0.3957308046753566,-0.12286186772483854,0.7740594366256532,-0.22945599826607044,-0.9954447705316071,-0.3061756430476567,-0.07475076035090743,0.4906841540258932,-0.15121789751494033,-0.670418649653045,-0.5592990854566192,0.1636999634135254,-0.4646209392732459,0.5356527796650219,0.19929909552108782,-0.001997158098324269,-0.13432003039549864,-0.08921251506518436,0.1005032498971107,-0.17685364847737728,0.39558901074706054,-0.7372251529342914,-0.023705535452078312,1.0611137617299462,-0.44932462354606434,0.053466109504381215,0.024119910388474147,-0.11560973677369125,-0.424894811196331,0.24045744468733227,-0.7017935665256143,-0.28719679234633544,0.3453456846619055,0.46713605895103966,0.2914473602088961,-0.05651511817724859,-0.16706012639785808,-1.0780197492000816,0.05461806703300999,-1.0051710450595248,-0.2502589897677404,0.29700583993078356,-0.07124877906241009,-0.2646782433972322,0.5549001460361345,0.6156385824769088,0.002914157731908665,-0.34989580051397157,-0.42992688847446675,-0.18336186885310563,-0.5714682986894857,-0.015863534187247005,0.9693601179945943,0.3344189499381832,0.9190868131171034,1.0322915335280622,-0.0634836492026492,0.2862397346810838,0.8846791883720106,-0.48910380492617705,0.8827743239106589,-0.9182511881035544,0.6888865362020234,-0.8021398783498807,-0.9943770852353919,-0.49764808824742635,-1.1878892623276036,-0.1402522615998674,-0.757325772405114,-0.5150442559977311,-1.0900104358019127,-0.19384083413130287,-0.02362640450713005,-0.00516177865444697,0.041725474036701606,-0.10252745147262564,0.3927117904590299,-0.09923230500708585,0.38135368500716404,0.5026578813604685,0.29109183271836575,0.6793428131254515,0.7997262418892275,0.40962347879394906,-0.9010550378842055,-0.7001716585687225,-0.5317146781817047,-0.7774314361860554,0.9470379116419185,-0.8792641450411137,-0.13461624797645716,0.5484952517336249,-0.22127684230987765,-1.0830789087424744,0.7340930651143472,0.09849790745665502,0.4601388237574747,-0.24129341988647732,0.6608166988509588,-0.4931307095074163,-0.2151876653314482,-0.3547343596260233,-0.7938548464604968,-0.5692497761665393,-0.34246909997303704,0.4738983595176677,0.6536640994030318,-0.49419249537925525,-0.21984365759622682,0.5090774586314618,0.6634775767720257,0.9598921815604469,-0.526132947089061,0.8720279038904445,0.9900663280021651,0.09492323191174372,0.3379643979716773,0.7176862718193856,0.31219368019902,-0.5270979671434703,0.5329782520690537,-0.7367560756319405,0.23506877922801794,0.40333795978787146,0.28174266506596984,0.4608523623929693,-0.039586695361651374,0.4226284829085178,0.013329243631131162,-0.2906464213822616,-0.5294819529937422,-0.41916109934523427,-1.0885113009430427,0.00954223919839832,-1.0984214175660099,0.3684882986044549,0.17241047107153484,1.2501658352273186,0.6241842147791951,-0.2175657191517005,0.5297091202617695,-0.09760030202871896,-0.48008715834750104,0.4148448417194464,0.4670285921360527,-0.7475377891327122,-1.5378196193226832,-1.012166647839652,-0.05481004411049521,0.654544574948371,0.30219296648460275,-0.033931502488459275,-0.6072210093696766,0.3663229656547951,0.42797420134187647,-0.8969586413563885,-1.2007431728494566,-1.4309027141638633,-1.0448271517917906,-1.5996860150882857,-0.6173764196781584,0.2797804716101331,-0.40122141489218266,0.1198860330930623,0.7536685836452028,-0.44983633939635304,0.46306332598656824,0.23815972226230955,-0.0569356801025802,-0.6785207069216144,-0.08487873564710036,0.7844631259361109,-0.8971316609524195,-0.3020409728698519,-0.21794904537976734,-0.41383981985558993,0.8286702600630459,0.04866464241795507,0.8974929021753444,1.413248970044588,0.924726559204557,0.363352827026858,-0.368635100418222,0.62349228760281,-0.24985280793307824,-0.7900168744474683,0.14851742857228842,-0.3532562744722852,-0.2915765069305898,-1.044257055514778,-0.8509260361068542,-1.041759140375571,-0.6094034012807322,-0.2077824455233276,-0.34394072495923433,0.9316516969584284,-0.22527463087121508,-0.9538079388579127,-0.05231399410318671,-0.9817938001994102,0.16171840151170444,-1.0989351608546325,-0.4768082388769007,0.7029773727492532,1.1350688757673881,0.10565581136939943,0.479513404026598,-0.0415102828636356,0.755740083022222,0.459980956740618,0.0552881606599573,0.6834073960662735,1.3788818112300085,-0.07035233022769831,-0.6511153997961062,0.4033216397928017,-1.0662856387692323,0.7106968572156447,0.09631977289903709,-0.25122828423191174,0.1591716732392817,0.35881573624335733,0.9792347943905045,-0.056137188265167746,0.7606013047189215,0.3594472998040907,0.3014042001694839,0.9638415928586315,0.7213385504714718,-0.38733928702471376,-0.9257529026948896,-0.6961901501242195,1.19608682248381,1.1951584010336878,-0.31477661597243056,-0.16025323998717056,-0.007814332177548492,0.25340865867962853,1.6218240348399786,-0.01419271961835567,0.7199423892813548,1.5474896683392037,-0.1130901666917457,-0.29152562710389657,1.0556461936632393,0.03596707538855902,-0.023734887198757142,0.6773924467284652,-0.46281037257996005,0.7907576885956579,-0.4657457618222431,-0.8816158957414632,0.8274051897795758,0.11370426742539985,-0.7161809213716177,0.02027461833871049,-0.6899794778890251,0.5039190534329918,-0.9716330559333357,0.08098573030724997,-0.00008954470115110317,0.43403023441547955,-0.014367574069216082,0.9490747692438387,0.7346776733971898,1.062068645404115,0.34434908812347087,0.22738400283068405,0.4866876805457693,0.9046130097849889,0.8165849453299362,0.4858878027064716,-0.5568581155930896,0.1691767647939397,-0.6080838804733663,-0.8237640584007947,-0.08106004143866778,-0.38598513395687145,0.5144962043080252,0.11313720477772439,0.034711862943629414,0.43408804346671426,-0.7193346151948639,-0.3629096507203917,0.6417327411180269,-0.8812777046708716,-0.9672726288187651,-0.3067463902617913,0.4372162138078151,-0.45213969844840207,0.7750846122273285,0.5034648400432735,-0.035179484533448054,0.9195508239387657,0.22369125316078092,1.3343887786668354,1.0309312718706778,0.7705212685661978,0.16235005962550875,1.2783591378586896,-0.26898739375907865,0.33471374183131425,0.6912527137114802,-0.7649779175324501,0.5405952936924573,0.5727888308607112,-0.22569245837152466,0.6028433129223747,0.3792027294835944,-0.593274555499808,0.4642193746571399,-0.5927463051362061,0.9794826161777763,0.5104064606326818,-0.43430192232401843,-0.9679999893389641,-0.555435795480092,-0.13377390770383796,-0.0715098675342628,0.4756952055722337,0.7831890099024152,0.9933520499968942,0.02632906662279909,1.0641941038921294,-0.0013712811135685548,0.27733676360032317,-0.2360964121696584,0.22270278826368278,-0.14867732187175975,-0.6828617120756635,-0.0974686629931503,0.08795694192287512,-0.20716319038150582,0.6604279511168347,-0.054810581770975406,0.3918769762761344,-0.7777726714102399,-0.7161094855300647,0.808781718756939,-0.7523061372562174,0.6293860147071451,0.6040573834576439,0.4248314084502086,-1.2365232360805793,0.014903982707170887,-0.058186096836941655,-0.6831081529913825,-0.3489520845443751,0.23840375008117384,0.4884883068823593,0.956569854682013,0.06566718645637452,0.751997191553993,-0.07058943175384386,0.6925304309889083,0.17600176297836906,0.36513340316618476,-0.3426359512270637,-0.33925584707985673,0.16136730882483533,-0.7637611327706598,-0.6537130640789092,0.8413377192490312,0.40393824505993264,-0.6216878724334949,-0.6328526513833505,-0.053581254048769456,0.8597919048280329,-0.9123399542375654,-0.10936988281579252,-0.8579910238290347,0.3334981024434324,0.22254625484634258,0.6792627093492896,-0.6620453384615774,0.17007968251708294,0.05237684495320367,0.42573766003231217,-0.297629184708623,0.46242836558280576,0.16410441786834673,0.41468581806949845,0.1784260887340769,-0.8102420931477754,0.0980245561725869,-0.8269690120754367,0.5672647938298584,-0.8051189898734262,1.0313177926157528,-0.6277328891492946,-1.099430753484068,0.16957013852160446,-0.6399196839281744,0.5528682889749131,-0.5925157334387259,-0.035500308115578694,-0.14296168850762445,-0.4359367685690735,-0.3367548474463065,0.20101775431432206,-0.5896389624894472,-0.4122676843720016,1.204873991080393,0.7101939647366312,-0.2453170962265566,-0.23074407566582555,-0.9801623226237764,-0.5015297326210242,-0.7458436516102832,-0.3498187795018827,-0.8279400747909602,0.11640362444531635,-0.04000547374741472,0.06683624314888756,0.9946599223761838,-0.13125076490264445,-0.24502249576141005,0.3513832535825786,0.089257129797789,0.7410725950366605,-0.8602585460612754,-0.8140708203906115,0.33807174373851323,0.629444543404726,0.4767096329665241,-0.16111849677011114,0.24819488457491204,0.5724083028043397,-0.4173124229395913,-0.4556999624102201,0.8304278823324249,1.0579778653496894,0.539142515576155,-0.9348859288029268,-0.482058032324326,-0.9438664492927097,-0.742376085323169,0.06306350142883696,0.9054808757942195,-0.2684164379545246,0.9858283861915391,-0.2808387773937616,-0.6937605253223106,-0.4068556119763816,-0.6465911639274988,0.22346710413520443,0.755411593121652,0.6621317788458527,0.6733290082044792,-0.7793198022676142,-0.6330367749228429,0.15820848704269164,-0.02570524984071243,0.49873361630946567,0.30001669109951346,-0.7903555284411247,0.10907314848624033,0.3091261789010894,-0.34093056770482627,-0.21814418345177167,-0.3159663555191032,-0.0679471053954064,-0.12323675543171554,0.2314665698196879,-0.35703565326748105,-0.4152375634410027,-0.8592210046667605,-0.6733637057481932,-0.702327166881464,0.9030036286681675,-0.03827807911145572,0.3192659298917906,0.6233735232751566,0.12989026574728146,0.7766744797346536,-0.3871340018917614,-0.33440044441721906,-0.8079644302091902,-0.3358334128806839,0.2623871248941674,0.55968843553562,0.7329810269105237,-0.22140400419931192,-0.33731196219857634,0.6277047189282929,-0.5633964716751557,0.22709911397418223,-0.06088145707484193,-1.6456163896096745,-0.2345871405749127,0.40601189717690234,0.44095249426199296,-0.7801852459315332,-0.26292866952553856,-0.525262787763939,0.0640339393151218,-0.4547428722922216,0.072681909052331,0.3465272086323289,0.6545777422933193,0.45690112190902143,-0.8505490694792638,-0.9083380150335943,-0.9502190011179781,-0.7185119430076212,-0.7141449374423559,0.8818915986889055,-0.8377780098993193,-0.8161995383732921,0.8740530123561788,-0.5006819633412869,-0.799386068499278,-1.0399231252296022,-0.788205642856565,-0.945111602481748,0.547900652174484,-0.038539465219302835,-1.1158565608112077,-0.5156503852834027,-0.012505270295373648,0.22519594744480834,-0.7429490778333309,0.3233259963451539,0.17587671758467976,0.20280207781494697,0.49410451922015725,-0.6181259251861566,0.9484201872119719,0.5857662856173262,-0.34667807245842486,0.44407041232981254,0.7714150542305144,0.3690494951702072,-0.7071986678855695,-0.4892684973796686,0.32153068684463415,-0.9379871819187819,0.16727886180610527,-1.0614673900329608,-1.197572127903177,-0.9754958359958393,0.12072438595654904,-0.738588823498634,-0.021443124870174395,0.5990936593957812,0.3822924491513198,0.2609063007496915,-1.0971405208955547,0.786438741587007,-0.9001317409603732,-0.43402900390714827,0.9711970667457551,0.7734219914595641,-0.2989363394442096,-0.06454989772218069,0.9501840417545937,0.08883386051526504,0.33294553641135205,0.05154422093306003,0.45324297463196317,-0.5286345746474677,0.7745474812456674,-0.23057573519048624,0.49420517529881014,-0.9095266353353875,-0.19530758169535678,0.4348370050458128,-0.06044140751195974,0.3707913366118802,-0.26394270766730293,-0.04588962722345843,0.3404597077667362,-0.7211939507318105,-0.5412832444552316,0.4641615572214624,-0.9408127267369042,0.05438906832337689,0.32098851161467357,-1.0015420169985332,-0.18387958287008785,0.6726853017789621,-0.12113925429529983,0.8287688887180721,0.2595163833604037,0.2553493536372055,-0.8109277078278331,0.42465528691519416,-0.6195100507133744,-0.7161832830745527,-0.472746565225171,-0.6308064593806022,0.25643424807672677,0.9579871864953309,0.3121678324708019,-0.1629553508782616,-0.0018437743230165396,0.06967547156525607,0.03745094037039805,0.634156306346967,0.05663238775382863,-0.9237713969261154,-0.3876177167215874,0.9704102772621109,-0.6820814944546726,0.6657339608440356,-0.2582757209261748,-0.6528139416832882,0.3188774435749843,-0.30764614603350937,0.29701372551953653,0.8602458216793274,-0.15581963098855553,0.43603641023784007,-0.2419277396448085,0.7981148457502556,-0.7476197257493911,0.42550861321599553,0.5873196514471806,0.015429152675995539,0.6689402766034269,0.5646225391981918,-0.5318062760255673,0.19231326682011174,-0.8549162450980308,-0.007026151948033613,0.46727810738915776,-0.5043218862192448,0.9404913482006836,0.2858526941860043,0.5911874872932658,-0.3685548208352282,-0.19567064657935793,0.8537689297174887,-0.703993141053161,0.8333713344822827,-0.5662617823998274,0.279925995696159,-0.550466183839498,-0.40787312932794084,-0.625583977569972,-0.4599795393287907,0.38662281600529047,0.7822262167286023,0.3797870882033467,0.13497679218686143,-0.2351499797506924],"bias":-1.1576661720891277},{"weights":[0.42200366971643977,0.9996835163053821,0.8093298364822106,0.14931835138956417,0.9768782945186274,-0.03635074764062862,-0.9916597522723043,0.5159830476398337,-0.1490036754147397,0.9417146002279027,-0.9635726227555339,0.6694256727315153,-0.09490892102000803,-0.322968182959809,-0.9281479330976228,-0.4272454896154514,-0.025672376395497576,0.35738003734079005,-0.2690198520192233,0.5958483502963108,-0.13596081697956208,0.620873979336074,-0.9498625124370892,-0.8335466134497498,-0.45593472163441096,0.7237405440327742,-0.9174515119403122,0.3144239461368006,0.08866236692136376,0.1742316062720537,-0.9031994334875595,-0.23711588498980563,-0.5131053698344492,-0.10949089322501404,0.895416082238853,-0.18752360030765558,0.6102148400750089,-0.6651194052033944,0.15876193284732998,-0.31979930757751934,0.8244317245849909,0.6281441660931867,-0.37431407375532294,0.8032884490099181,-0.5216205376474589,0.6557942317750334,-0.02923360192478764,0.4848462541459841,0.49690953240217894,-0.8838503320636266,-0.7943806542171533,-0.42767792973395125,-0.3938026715804166,0.5128206606502403,-0.6074481621467083,-0.8965550998794791,0.767671097354691,0.41008397825800147,0.3933499781893528,0.34044017747467636,-0.37719379657225754,0.19789685135425758,0.21059097649122208,0.21532851642689227,-0.9150816671575426,0.16155604938832607,0.12991724636069288,-0.28743715878966325,-0.010240805782102038,0.2932273042012495,0.053434572782290746,-0.6859962228500885,-0.7130291481747169,-0.937824017242038,-0.02966442065298686,-0.8854740157020187,0.14816716967427981,0.24597655439835814,-0.4877749958899825,-0.3268373742167283,-0.04419988883350474,0.28595793200750874,0.43833010110423754,0.1990662836751773,-0.15961255695617327,0.3121556858061205,-0.19839307173141263,0.22157236780123224,0.18591664023959534,-0.6827346357116508,0.7066080310216701,0.34329132344542923,0.7646053292060474,0.011267009532513503,-0.14094265848659787,0.3429267826074642,-0.5134051491955773,0.33642657231946554,0.8078063005686668,-0.01889882943482714,-0.5877130149771834,0.952194747665431,0.05426879321116816,-0.6890807191143055,-0.585250994433617,0.7984715259536338,0.11217026218314664,0.9307684003137291,0.5461096290686699,-0.4394818627970234,-0.8191462571635539,-0.4226879004937767,-0.8264955039115001,-0.6557889875032514,-0.1343983779621678,0.024743512914239995,0.61064108303926,0.27860853629660043,-0.04034694095163795,0.9868131916503126,0.7581994056374882,0.9800335381804394,0.4727856584782978,0.452551977092904,0.3108232992986794,-0.4776786323407873,-0.7261594815169452,-0.20766437715828273,0.053172876060881426,0.9474823566002435,-0.029061300715059673,0.5736734973370038,-0.7513716713881955,-0.5709838695607372,0.28298362645133157,0.8003589914031785,-0.7276724899632097,-0.6839843825337152,0.9909313959637439,-0.6879063416323499,-0.7659220766781614,0.9124810728172532,-0.2243073091741924,-0.5784202401983837,-0.35366900407405333,0.20589028471218515,0.8469981093513754,0.7748138667523173,-0.02977667563781353,1.0064942036932987,0.39336679179967327,-0.28327597426114903,0.014698295082490664,-0.26140810653778745,0.09096525569773092,0.037538336551428034,0.2968627154672005,-1.0788542382050246,-0.401954816036321,-0.9562332032701966,0.06378118250590269,-0.4294810120757909,0.3776947514636029,-0.6447176052607733,0.3048388590263551,-0.9356855319512029,-0.1833935238445937,0.3904379056159339,0.5416637753419131,0.26995073086521826,-0.3232353635328852,-0.14584460376019243,-0.08388772822433997,0.6192876671364125,0.9062640717196971,0.9376936526362909,-1.027313852742186,-0.2927081935626419,0.18376625827184184,0.5147836766775977,0.27429327236120055,-0.797923089673195,-0.04629468170572307,-0.21895019437480498,-0.9216412104297105,-0.3919381924754669,-0.5757954308310045,0.25033281889495124,0.08004357609989805,-0.5891965097485523,0.34433311238970327,-0.6214333655490855,0.5437803215909991,-0.17284730262520823,0.7934563595156431,-0.17416219110010975,0.6688727695464712,0.3176495494035446,0.6798949711114196,0.9375470388628556,-0.7129044703666562,0.2873593145740447,-0.13009383241464859,-0.6374281464166185,-0.8721184945037016,-0.6233711406645859,-0.1615864428566015,1.2072487544704635,-0.2738231599634361,-0.3447966934370667,-0.24574201196792061,-0.46181821288659025,0.4582574114575536,0.46799489481277573,-0.9888433292394012,0.28571981757706294,-0.3549860543986476,0.25164112582487075,-0.7650897600658888,-1.303177076054443,-0.44170792325870745,-0.5854097640826844,0.9385685629145748,0.8075624350170664,-0.8707134277984976,0.01846375422316889,0.28972065004538056,0.5144950815111943,-1.0135405742974117,0.16659299504247957,-0.6146206855921202,-0.4891358266158483,0.41070625912247,-0.8096836536465758,0.4708382325517239,-0.3549350220634021,-0.24681068273650544,0.5584912434185303,-0.24647782277563848,0.11186576367481876,-1.1143875782291122,-0.6943286177572753,-0.6382786601093251,-0.899102759788484,-0.7607737785264186,-0.48048020698616273,-0.9783104290222685,-0.9680390589147262,-0.29854603147153175,-0.13772369266844,0.9475522422252243,-0.48323353378503664,-0.2807560117439714,-0.7221759571341846,-0.7015904660091197,0.08475509553469365,0.8194490264603418,-0.04509478243670914,0.4482011702954806,-0.0347869429453572,0.5047580709867765,0.7773263936815011,0.06200376984151335,0.558410595522522,0.2901353587778348,-0.6368037844779955,-0.30044714003342105,0.1348322181172947,0.15618329097196354,0.1699902134173879,-0.5383492754304158,0.8181773293711091,0.639689855786429,0.5204573726130872,-0.10529348172243908,0.19923042666902843,0.6305107354023374,0.8136706595347282,0.8723277728966737,0.9608905182976741,0.7034559702119108,-0.16718800909978868,-0.5985033734461304,0.6645620788641055,-0.16659014199099442,0.2409022769452969,0.5253797473208174,0.1841519519462844,0.4382270487357553,-0.14766553189922046,1.2431633257896735,1.2633688465556359,0.34139544123294635,0.453847124459334,0.9257091665399476,0.23457212626270751,0.26064970416244554,-0.1484003284363733,-0.45606006138508176,0.4219607715993639,0.6083349385762761,-0.7636772927194772,-0.49816694119955385,-0.5266583092918258,-0.8342995536554191,0.7456703226809556,-0.8690025412890992,-0.2850683908047493,-0.5952441942398781,-0.657680817689995,-0.44481581748868915,-0.013055876233067283,-0.48774366585049445,1.0663879160621754,1.163307818108684,0.028709800132037926,-0.5303056915406966,-0.29002078334330106,-0.22780259979523942,-0.41762010672286953,0.47583181078688347,1.5248734006926943,-0.7283902117715161,-0.4190723572064648,0.7370948965679305,1.3768485794290504,0.20676449080457981,0.16474228363718593,-0.10224267564662586,0.21492498048000616,0.4404586214060025,-0.7594962291316063,-0.45112208963669426,-0.7909607513841764,-0.5957268415177215,